network "unnamedBN" {
// written by aGrUM 0.20.2.9
}

variable n_0 {
   type discrete[2] {0, 1};
}

variable n_1 {
   type discrete[2] {0, 1};
}

variable n_2 {
   type discrete[3] {0, 1, 2};
}

variable n_3 {
   type discrete[3] {0, 1, 2};
}

variable n_4 {
   type discrete[2] {0, 1};
}

variable n_5 {
   type discrete[3] {0, 1, 2};
}

variable n_6 {
   type discrete[3] {0, 1, 2};
}

variable n_7 {
   type discrete[3] {0, 1, 2};
}

variable n_8 {
   type discrete[2] {0, 1};
}

variable n_9 {
   type discrete[2] {0, 1};
}

probability (n_0 | n_9) {
   (0) 0.66347 0.33653;
   (1) 0.700628 0.299372;
}
probability (n_1) {
   default 0.411715 0.588285;
}
probability (n_2 | n_6) {
   (0) 0.1518 0.248252 0.599948;
   (1) 0.118939 0.829526 0.0515353;
   (2) 0.194447 0.310939 0.494614;
}
probability (n_3 | n_0) {
   (0) 0.108929 0.586764 0.304307;
   (1) 0.643112 0.0929474 0.263941;
}
probability (n_4 | n_5, n_7) {
   (0, 0) 0.53717 0.46283;
   (1, 0) 0.647712 0.352288;
   (2, 0) 0.637759 0.362241;
   (0, 1) 0.537145 0.462855;
   (1, 1) 0.32271 0.67729;
   (2, 1) 0.340812 0.659188;
   (0, 2) 0.415496 0.584504;
   (1, 2) 0.549619 0.450381;
   (2, 2) 0.576333 0.423667;
}
probability (n_5) {
   default 0.109059 0.70476 0.186181;
}
probability (n_6) {
   default 0.230221 0.151325 0.618455;
}
probability (n_7) {
   default 0.683512 0.262762 0.0537254;
}
probability (n_8 | n_9, n_7, n_2) {
   (0, 0, 0) 0.550681 0.449319;
   (1, 0, 0) 0.655167 0.344833;
   (0, 1, 0) 0.408819 0.591181;
   (1, 1, 0) 0.920442 0.0795584;
   (0, 2, 0) 0.676645 0.323355;
   (1, 2, 0) 0.613192 0.386808;
   (0, 0, 1) 0.518641 0.481359;
   (1, 0, 1) 0.639468 0.360532;
   (0, 1, 1) 0.256496 0.743504;
   (1, 1, 1) 0.65553 0.34447;
   (0, 2, 1) 0.518069 0.481931;
   (1, 2, 1) 0.560184 0.439816;
   (0, 0, 2) 0.480932 0.519068;
   (1, 0, 2) 0.735552 0.264448;
   (0, 1, 2) 0.299217 0.700783;
   (1, 1, 2) 0.553318 0.446682;
   (0, 2, 2) 0.576622 0.423378;
   (1, 2, 2) 0.667174 0.332826;
}
probability (n_9 | n_7, n_1, n_4) {
   (0, 0, 0) 0.670947 0.329053;
   (1, 0, 0) 0.604284 0.395716;
   (2, 0, 0) 0.82031 0.17969;
   (0, 1, 0) 0.668536 0.331464;
   (1, 1, 0) 0.566203 0.433797;
   (2, 1, 0) 0.922915 0.077085;
   (0, 0, 1) 0.276423 0.723577;
   (1, 0, 1) 0.399613 0.600387;
   (2, 0, 1) 0.680819 0.319181;
   (0, 1, 1) 0.184081 0.815919;
   (1, 1, 1) 0.519284 0.480716;
   (2, 1, 1) 0.199196 0.800804;
}

