network "unnamedBN" {
// written by aGrUM 0.20.2.9
}

variable n_0 {
   type discrete[3] {0, 1, 2};
}

variable n_1 {
   type discrete[3] {0, 1, 2};
}

variable n_2 {
   type discrete[2] {0, 1};
}

variable n_3 {
   type discrete[2] {0, 1};
}

variable n_4 {
   type discrete[3] {0, 1, 2};
}

variable n_5 {
   type discrete[2] {0, 1};
}

variable n_6 {
   type discrete[2] {0, 1};
}

variable n_7 {
   type discrete[2] {0, 1};
}

variable n_8 {
   type discrete[3] {0, 1, 2};
}

variable n_9 {
   type discrete[2] {0, 1};
}

variable n_10 {
   type discrete[2] {0, 1};
}

variable n_11 {
   type discrete[3] {0, 1, 2};
}

variable n_12 {
   type discrete[2] {0, 1};
}

variable n_13 {
   type discrete[2] {0, 1};
}

variable n_14 {
   type discrete[2] {0, 1};
}

variable n_15 {
   type discrete[2] {0, 1};
}

variable n_16 {
   type discrete[3] {0, 1, 2};
}

variable n_17 {
   type discrete[2] {0, 1};
}

variable n_18 {
   type discrete[2] {0, 1};
}

variable n_19 {
   type discrete[2] {0, 1};
}

variable n_20 {
   type discrete[3] {0, 1, 2};
}

variable n_21 {
   type discrete[2] {0, 1};
}

variable n_22 {
   type discrete[2] {0, 1};
}

variable n_23 {
   type discrete[3] {0, 1, 2};
}

variable n_24 {
   type discrete[3] {0, 1, 2};
}

variable n_25 {
   type discrete[3] {0, 1, 2};
}

variable n_26 {
   type discrete[3] {0, 1, 2};
}

variable n_27 {
   type discrete[3] {0, 1, 2};
}

variable n_28 {
   type discrete[3] {0, 1, 2};
}

variable n_29 {
   type discrete[2] {0, 1};
}

variable n_30 {
   type discrete[3] {0, 1, 2};
}

variable n_31 {
   type discrete[2] {0, 1};
}

variable n_32 {
   type discrete[2] {0, 1};
}

variable n_33 {
   type discrete[2] {0, 1};
}

variable n_34 {
   type discrete[2] {0, 1};
}

variable n_35 {
   type discrete[3] {0, 1, 2};
}

variable n_36 {
   type discrete[3] {0, 1, 2};
}

variable n_37 {
   type discrete[2] {0, 1};
}

variable n_38 {
   type discrete[2] {0, 1};
}

variable n_39 {
   type discrete[2] {0, 1};
}

variable n_40 {
   type discrete[2] {0, 1};
}

variable n_41 {
   type discrete[2] {0, 1};
}

variable n_42 {
   type discrete[3] {0, 1, 2};
}

variable n_43 {
   type discrete[2] {0, 1};
}

variable n_44 {
   type discrete[2] {0, 1};
}

variable n_45 {
   type discrete[3] {0, 1, 2};
}

variable n_46 {
   type discrete[2] {0, 1};
}

variable n_47 {
   type discrete[2] {0, 1};
}

variable n_48 {
   type discrete[2] {0, 1};
}

variable n_49 {
   type discrete[3] {0, 1, 2};
}

variable n_50 {
   type discrete[3] {0, 1, 2};
}

variable n_51 {
   type discrete[3] {0, 1, 2};
}

variable n_52 {
   type discrete[2] {0, 1};
}

variable n_53 {
   type discrete[2] {0, 1};
}

variable n_54 {
   type discrete[2] {0, 1};
}

variable n_55 {
   type discrete[2] {0, 1};
}

variable n_56 {
   type discrete[3] {0, 1, 2};
}

variable n_57 {
   type discrete[2] {0, 1};
}

variable n_58 {
   type discrete[3] {0, 1, 2};
}

variable n_59 {
   type discrete[2] {0, 1};
}

variable n_60 {
   type discrete[2] {0, 1};
}

variable n_61 {
   type discrete[3] {0, 1, 2};
}

variable n_62 {
   type discrete[2] {0, 1};
}

variable n_63 {
   type discrete[2] {0, 1};
}

variable n_64 {
   type discrete[2] {0, 1};
}

variable n_65 {
   type discrete[3] {0, 1, 2};
}

variable n_66 {
   type discrete[2] {0, 1};
}

variable n_67 {
   type discrete[2] {0, 1};
}

variable n_68 {
   type discrete[2] {0, 1};
}

variable n_69 {
   type discrete[3] {0, 1, 2};
}

variable n_70 {
   type discrete[2] {0, 1};
}

variable n_71 {
   type discrete[2] {0, 1};
}

variable n_72 {
   type discrete[2] {0, 1};
}

variable n_73 {
   type discrete[3] {0, 1, 2};
}

variable n_74 {
   type discrete[3] {0, 1, 2};
}

variable n_75 {
   type discrete[3] {0, 1, 2};
}

variable n_76 {
   type discrete[2] {0, 1};
}

variable n_77 {
   type discrete[3] {0, 1, 2};
}

variable n_78 {
   type discrete[2] {0, 1};
}

variable n_79 {
   type discrete[3] {0, 1, 2};
}

variable n_80 {
   type discrete[2] {0, 1};
}

variable n_81 {
   type discrete[2] {0, 1};
}

variable n_82 {
   type discrete[2] {0, 1};
}

variable n_83 {
   type discrete[3] {0, 1, 2};
}

variable n_84 {
   type discrete[3] {0, 1, 2};
}

variable n_85 {
   type discrete[3] {0, 1, 2};
}

variable n_86 {
   type discrete[3] {0, 1, 2};
}

variable n_87 {
   type discrete[2] {0, 1};
}

variable n_88 {
   type discrete[2] {0, 1};
}

variable n_89 {
   type discrete[3] {0, 1, 2};
}

variable n_90 {
   type discrete[2] {0, 1};
}

variable n_91 {
   type discrete[3] {0, 1, 2};
}

variable n_92 {
   type discrete[3] {0, 1, 2};
}

variable n_93 {
   type discrete[3] {0, 1, 2};
}

variable n_94 {
   type discrete[2] {0, 1};
}

variable n_95 {
   type discrete[2] {0, 1};
}

variable n_96 {
   type discrete[3] {0, 1, 2};
}

variable n_97 {
   type discrete[3] {0, 1, 2};
}

variable n_98 {
   type discrete[3] {0, 1, 2};
}

variable n_99 {
   type discrete[2] {0, 1};
}

probability (n_0 | n_72) {
   (0) 0.403302 0.219859 0.376838;
   (1) 0.471508 0.242245 0.286247;
}
probability (n_1 | n_0) {
   (0) 0.332121 0.274228 0.393651;
   (1) 0.19032 0.443514 0.366167;
   (2) 0.396057 0.134982 0.468961;
}
probability (n_2 | n_1, n_56, n_58) {
   (0, 0, 0) 0.482901 0.517099;
   (1, 0, 0) 0.575199 0.424801;
   (2, 0, 0) 0.0597989 0.940201;
   (0, 1, 0) 0.633245 0.366755;
   (1, 1, 0) 0.452845 0.547155;
   (2, 1, 0) 0.324466 0.675534;
   (0, 2, 0) 0.144808 0.855192;
   (1, 2, 0) 0.394147 0.605853;
   (2, 2, 0) 0.0695726 0.930427;
   (0, 0, 1) 0.604118 0.395882;
   (1, 0, 1) 0.804789 0.195211;
   (2, 0, 1) 0.354924 0.645076;
   (0, 1, 1) 0.656742 0.343258;
   (1, 1, 1) 0.0108514 0.989149;
   (2, 1, 1) 0.372402 0.627598;
   (0, 2, 1) 0.240199 0.759801;
   (1, 2, 1) 0.0574591 0.942541;
   (2, 2, 1) 0.297009 0.702991;
   (0, 0, 2) 0.281494 0.718506;
   (1, 0, 2) 0.834192 0.165808;
   (2, 0, 2) 0.938522 0.0614779;
   (0, 1, 2) 0.100042 0.899958;
   (1, 1, 2) 0.619946 0.380054;
   (2, 1, 2) 0.297397 0.702603;
   (0, 2, 2) 0.884477 0.115523;
   (1, 2, 2) 0.171723 0.828277;
   (2, 2, 2) 0.508319 0.491681;
}
probability (n_3 | n_43) {
   (0) 0.826374 0.173626;
   (1) 0.444149 0.555851;
}
probability (n_4) {
   default 0.384366 0.508613 0.107021;
}
probability (n_5 | n_4) {
   (0) 0.550571 0.449429;
   (1) 0.328925 0.671075;
   (2) 0.729438 0.270562;
}
probability (n_6 | n_5, n_34) {
   (0, 0) 0.528196 0.471804;
   (1, 0) 0.492154 0.507846;
   (0, 1) 0.36105 0.63895;
   (1, 1) 0.0293723 0.970628;
}
probability (n_7 | n_8, n_76) {
   (0, 0) 0.580633 0.419367;
   (1, 0) 0.958817 0.0411833;
   (2, 0) 0.195142 0.804858;
   (0, 1) 0.16315 0.83685;
   (1, 1) 0.156046 0.843954;
   (2, 1) 0.736788 0.263212;
}
probability (n_8 | n_6) {
   (0) 0.115879 0.387137 0.496985;
   (1) 0.0640562 0.4718 0.464143;
}
probability (n_9 | n_13, n_57) {
   (0, 0) 0.848497 0.151503;
   (1, 0) 0.339242 0.660758;
   (0, 1) 0.728834 0.271166;
   (1, 1) 0.558327 0.441673;
}
probability (n_10 | n_9) {
   (0) 0.0818505 0.91815;
   (1) 0.744145 0.255855;
}
probability (n_11 | n_12, n_10) {
   (0, 0) 0.253266 0.473673 0.273061;
   (1, 0) 0.0476478 0.530115 0.422238;
   (0, 1) 0.374231 0.417968 0.207801;
   (1, 1) 0.57892 0.254188 0.166892;
}
probability (n_12) {
   default 0.256622 0.743378;
}
probability (n_13 | n_76) {
   (0) 0.108676 0.891324;
   (1) 0.441557 0.558443;
}
probability (n_14 | n_20) {
   (0) 0.144921 0.855079;
   (1) 0.208131 0.791869;
   (2) 0.40677 0.59323;
}
probability (n_15 | n_14) {
   (0) 0.437664 0.562336;
   (1) 0.557868 0.442132;
}
probability (n_16 | n_15, n_17) {
   (0, 0) 0.432028 0.124356 0.443615;
   (1, 0) 0.153735 0.656961 0.189304;
   (0, 1) 0.152256 0.3902 0.457544;
   (1, 1) 0.120697 0.576066 0.303237;
}
probability (n_17) {
   default 0.390722 0.609278;
}
probability (n_18 | n_15) {
   (0) 0.680374 0.319626;
   (1) 0.533539 0.466461;
}
probability (n_19 | n_14, n_20) {
   (0, 0) 0.479686 0.520314;
   (1, 0) 0.513025 0.486975;
   (0, 1) 0.214787 0.785213;
   (1, 1) 0.136087 0.863913;
   (0, 2) 0.323465 0.676535;
   (1, 2) 0.602036 0.397964;
}
probability (n_20 | n_46) {
   (0) 0.375796 0.220813 0.403392;
   (1) 0.252768 0.37017 0.377061;
}
probability (n_21 | n_33) {
   (0) 0.437487 0.562513;
   (1) 0.363254 0.636746;
}
probability (n_22 | n_21) {
   (0) 0.957665 0.0423351;
   (1) 0.926697 0.0733031;
}
probability (n_23 | n_22) {
   (0) 0.154746 0.51477 0.330484;
   (1) 0.454573 0.127172 0.418255;
}
probability (n_24 | n_23) {
   (0) 0.258324 0.484861 0.256815;
   (1) 0.356475 0.346533 0.296992;
   (2) 0.452915 0.0539552 0.49313;
}
probability (n_25) {
   default 0.39475 0.176056 0.429195;
}
probability (n_26 | n_25) {
   (0) 0.0707821 0.749148 0.180069;
   (1) 0.320659 0.230165 0.449176;
   (2) 0.276646 0.463808 0.259546;
}
probability (n_27 | n_26) {
   (0) 0.273983 0.498326 0.227691;
   (1) 0.210348 0.399825 0.389828;
   (2) 0.436526 0.453562 0.109912;
}
probability (n_28 | n_27) {
   (0) 0.58523 0.315503 0.0992677;
   (1) 0.215287 0.0927015 0.692012;
   (2) 0.396306 0.200674 0.403019;
}
probability (n_29) {
   default 0.44966 0.55034;
}
probability (n_30 | n_29) {
   (0) 0.384631 0.0341129 0.581256;
   (1) 0.073498 0.189695 0.736807;
}
probability (n_31 | n_21, n_32) {
   (0, 0) 0.84188 0.15812;
   (1, 0) 0.547727 0.452273;
   (0, 1) 0.395819 0.604181;
   (1, 1) 0.106128 0.893872;
}
probability (n_32) {
   default 0.778737 0.221263;
}
probability (n_33 | n_34, n_50) {
   (0, 0) 0.793636 0.206364;
   (1, 0) 0.23487 0.76513;
   (0, 1) 0.69245 0.30755;
   (1, 1) 0.468563 0.531437;
   (0, 2) 0.9672 0.0328002;
   (1, 2) 0.0679295 0.93207;
}
probability (n_34) {
   default 0.784827 0.215173;
}
probability (n_35 | n_34) {
   (0) 0.360045 0.10424 0.535715;
   (1) 0.422131 0.128941 0.448927;
}
probability (n_36 | n_62, n_23) {
   (0, 0) 0.223514 0.415386 0.3611;
   (1, 0) 0.399963 0.537059 0.0629779;
   (0, 1) 0.854075 0.127979 0.0179464;
   (1, 1) 0.450974 0.0905591 0.458467;
   (0, 2) 0.0635801 0.160729 0.775691;
   (1, 2) 0.0820214 0.72624 0.191738;
}
probability (n_37 | n_38) {
   (0) 0.626843 0.373157;
   (1) 0.326373 0.673627;
}
probability (n_38) {
   default 0.770179 0.229821;
}
probability (n_39 | n_38, n_85) {
   (0, 0) 0.656552 0.343448;
   (1, 0) 0.0985529 0.901447;
   (0, 1) 0.768881 0.231119;
   (1, 1) 0.713082 0.286918;
   (0, 2) 0.490008 0.509992;
   (1, 2) 0.496364 0.503636;
}
probability (n_40 | n_38, n_41, n_28) {
   (0, 0, 0) 0.131392 0.868608;
   (1, 0, 0) 0.930648 0.0693518;
   (0, 1, 0) 0.656469 0.343531;
   (1, 1, 0) 0.738407 0.261593;
   (0, 0, 1) 0.270164 0.729836;
   (1, 0, 1) 0.294764 0.705236;
   (0, 1, 1) 0.080589 0.919411;
   (1, 1, 1) 0.387315 0.612685;
   (0, 0, 2) 0.256396 0.743604;
   (1, 0, 2) 0.289102 0.710898;
   (0, 1, 2) 0.619633 0.380367;
   (1, 1, 2) 0.589207 0.410793;
}
probability (n_41 | n_38, n_30) {
   (0, 0) 0.394031 0.605969;
   (1, 0) 0.513473 0.486527;
   (0, 1) 0.676281 0.323719;
   (1, 1) 0.301379 0.698621;
   (0, 2) 0.686901 0.313099;
   (1, 2) 0.324858 0.675142;
}
probability (n_42 | n_37) {
   (0) 0.267452 0.511691 0.220857;
   (1) 0.330947 0.344098 0.324955;
}
probability (n_43) {
   default 0.463999 0.536001;
}
probability (n_44 | n_43) {
   (0) 0.361737 0.638263;
   (1) 0.226527 0.773473;
}
probability (n_45 | n_44) {
   (0) 0.246771 0.418999 0.33423;
   (1) 0.330663 0.314509 0.354828;
}
probability (n_46 | n_45) {
   (0) 0.406893 0.593107;
   (1) 0.511838 0.488162;
   (2) 0.0525002 0.9475;
}
probability (n_47 | n_44) {
   (0) 0.430831 0.569169;
   (1) 0.816003 0.183997;
}
probability (n_48 | n_47) {
   (0) 0.488058 0.511942;
   (1) 0.437042 0.562958;
}
probability (n_49 | n_48) {
   (0) 0.48823 0.394571 0.117199;
   (1) 0.572088 0.407819 0.0200926;
}
probability (n_50 | n_48, n_27) {
   (0, 0) 0.883282 0.115184 0.0015341;
   (1, 0) 0.461244 0.38873 0.150026;
   (0, 1) 0.513823 0.192288 0.293889;
   (1, 1) 0.272777 0.143352 0.583871;
   (0, 2) 0.568772 0.074666 0.356562;
   (1, 2) 0.312379 0.369282 0.318339;
}
probability (n_51 | n_43) {
   (0) 0.255637 0.716095 0.028268;
   (1) 0.1221 0.60896 0.26894;
}
probability (n_52) {
   default 0.462402 0.537598;
}
probability (n_53 | n_52, n_55) {
   (0, 0) 0.0313885 0.968611;
   (1, 0) 0.380799 0.619201;
   (0, 1) 0.943938 0.0560615;
   (1, 1) 0.466972 0.533028;
}
probability (n_54 | n_42) {
   (0) 0.698097 0.301903;
   (1) 0.100409 0.899591;
   (2) 0.682899 0.317101;
}
probability (n_55 | n_33) {
   (0) 0.459625 0.540375;
   (1) 0.694481 0.305519;
}
probability (n_56) {
   default 0.61247 0.241491 0.146039;
}
probability (n_57 | n_56) {
   (0) 0.833495 0.166505;
   (1) 0.450024 0.549976;
   (2) 0.228852 0.771148;
}
probability (n_58) {
   default 0.323626 0.534705 0.141669;
}
probability (n_59 | n_2) {
   (0) 0.63017 0.36983;
   (1) 0.780873 0.219127;
}
probability (n_60) {
   default 0.126433 0.873567;
}
probability (n_61 | n_60) {
   (0) 0.20766 0.542672 0.249668;
   (1) 0.29661 0.194956 0.508433;
}
probability (n_62 | n_61, n_81, n_11) {
   (0, 0, 0) 0.43743 0.56257;
   (1, 0, 0) 0.836202 0.163798;
   (2, 0, 0) 0.455578 0.544422;
   (0, 1, 0) 0.740509 0.259491;
   (1, 1, 0) 0.531762 0.468238;
   (2, 1, 0) 0.504752 0.495248;
   (0, 0, 1) 0.229436 0.770564;
   (1, 0, 1) 0.117957 0.882043;
   (2, 0, 1) 0.577947 0.422053;
   (0, 1, 1) 0.558819 0.441181;
   (1, 1, 1) 0.144781 0.855219;
   (2, 1, 1) 0.816738 0.183262;
   (0, 0, 2) 0.596217 0.403783;
   (1, 0, 2) 0.577088 0.422912;
   (2, 0, 2) 0.824142 0.175858;
   (0, 1, 2) 0.988061 0.011939;
   (1, 1, 2) 0.52855 0.47145;
   (2, 1, 2) 0.420783 0.579217;
}
probability (n_63 | n_1, n_96) {
   (0, 0) 0.207567 0.792433;
   (1, 0) 0.269468 0.730532;
   (2, 0) 0.505929 0.494071;
   (0, 1) 0.656824 0.343176;
   (1, 1) 0.458555 0.541445;
   (2, 1) 0.260738 0.739262;
   (0, 2) 0.800957 0.199043;
   (1, 2) 0.341649 0.658351;
   (2, 2) 0.740869 0.259131;
}
probability (n_64 | n_63) {
   (0) 0.774219 0.225781;
   (1) 0.395602 0.604398;
}
probability (n_65 | n_1) {
   (0) 0.496602 0.0113452 0.492053;
   (1) 0.0464048 0.0284544 0.925141;
   (2) 0.411442 0.081557 0.507001;
}
probability (n_66 | n_65) {
   (0) 0.543689 0.456311;
   (1) 0.236643 0.763357;
   (2) 0.0734721 0.926528;
}
probability (n_67 | n_66) {
   (0) 0.581876 0.418124;
   (1) 0.352507 0.647493;
}
probability (n_68 | n_1) {
   (0) 0.421109 0.578891;
   (1) 0.173504 0.826496;
   (2) 0.275163 0.724837;
}
probability (n_69 | n_38) {
   (0) 0.34746 0.298722 0.353818;
   (1) 0.0122788 0.244088 0.743634;
}
probability (n_70 | n_69) {
   (0) 0.812637 0.187363;
   (1) 0.983526 0.0164744;
   (2) 0.440851 0.559149;
}
probability (n_71 | n_1, n_55) {
   (0, 0) 0.656138 0.343862;
   (1, 0) 0.258761 0.741239;
   (2, 0) 0.23832 0.76168;
   (0, 1) 0.713324 0.286676;
   (1, 1) 0.115433 0.884567;
   (2, 1) 0.653581 0.346419;
}
probability (n_72) {
   default 0.669251 0.330749;
}
probability (n_73 | n_72) {
   (0) 0.21828 0.630152 0.151568;
   (1) 0.268253 0.333396 0.398351;
}
probability (n_74 | n_72) {
   (0) 0.161231 0.310208 0.528561;
   (1) 0.303415 0.117995 0.57859;
}
probability (n_75 | n_74) {
   (0) 0.295519 0.310655 0.393826;
   (1) 0.549083 0.0441252 0.406792;
   (2) 0.350385 0.291479 0.358136;
}
probability (n_76 | n_0) {
   (0) 0.396628 0.603372;
   (1) 0.54615 0.45385;
   (2) 0.97883 0.0211701;
}
probability (n_77 | n_76) {
   (0) 0.288676 0.126509 0.584815;
   (1) 0.382372 0.24743 0.370198;
}
probability (n_78 | n_98) {
   (0) 0.051256 0.948744;
   (1) 0.367096 0.632904;
   (2) 0.752938 0.247062;
}
probability (n_79 | n_78, n_91, n_92) {
   (0, 0, 0) 0.425633 0.422404 0.151964;
   (1, 0, 0) 0.536409 0.398756 0.0648348;
   (0, 1, 0) 0.512355 0.379295 0.10835;
   (1, 1, 0) 0.53854 0.0334107 0.428049;
   (0, 2, 0) 0.00492946 0.654847 0.340224;
   (1, 2, 0) 0.695325 0.221188 0.0834869;
   (0, 0, 1) 0.482956 0.365863 0.151181;
   (1, 0, 1) 0.356378 0.234523 0.409099;
   (0, 1, 1) 0.236599 0.248914 0.514487;
   (1, 1, 1) 0.00668888 0.517947 0.475365;
   (0, 2, 1) 0.166395 0.439875 0.39373;
   (1, 2, 1) 0.54573 0.380168 0.0741022;
   (0, 0, 2) 0.3833 0.159321 0.457379;
   (1, 0, 2) 0.327784 0.357714 0.314502;
   (0, 1, 2) 0.201139 0.579035 0.219826;
   (1, 1, 2) 0.305027 0.383355 0.311618;
   (0, 2, 2) 0.434063 0.392499 0.173438;
   (1, 2, 2) 0.484131 0.155966 0.359903;
}
probability (n_80 | n_29) {
   (0) 0.503555 0.496445;
   (1) 0.207838 0.792162;
}
probability (n_81 | n_80) {
   (0) 0.54626 0.45374;
   (1) 0.106267 0.893733;
}
probability (n_82 | n_81) {
   (0) 0.0841781 0.915822;
   (1) 0.51337 0.48663;
}
probability (n_83 | n_84) {
   (0) 0.443395 0.0301587 0.526446;
   (1) 0.17272 0.506002 0.321279;
   (2) 0.102796 0.240597 0.656607;
}
probability (n_84) {
   default 0.301539 0.564016 0.134445;
}
probability (n_85 | n_84, n_99) {
   (0, 0) 0.0128209 0.355444 0.631735;
   (1, 0) 0.342767 0.505454 0.151779;
   (2, 0) 0.0233989 0.179689 0.796912;
   (0, 1) 0.120303 0.515802 0.363895;
   (1, 1) 0.600201 0.0067154 0.393084;
   (2, 1) 0.37671 0.210082 0.413208;
}
probability (n_86 | n_84) {
   (0) 0.856693 0.130399 0.0129081;
   (1) 0.440553 0.156778 0.402669;
   (2) 0.536223 0.454325 0.00945199;
}
probability (n_87 | n_83, n_36, n_9) {
   (0, 0, 0) 0.527787 0.472213;
   (1, 0, 0) 0.908196 0.091804;
   (2, 0, 0) 0.785736 0.214264;
   (0, 1, 0) 0.884402 0.115598;
   (1, 1, 0) 0.963328 0.0366724;
   (2, 1, 0) 0.142145 0.857855;
   (0, 2, 0) 0.719765 0.280235;
   (1, 2, 0) 0.584456 0.415544;
   (2, 2, 0) 0.197505 0.802495;
   (0, 0, 1) 0.557935 0.442065;
   (1, 0, 1) 0.82301 0.17699;
   (2, 0, 1) 0.533863 0.466137;
   (0, 1, 1) 0.177394 0.822606;
   (1, 1, 1) 0.410919 0.589081;
   (2, 1, 1) 0.955408 0.044592;
   (0, 2, 1) 0.586716 0.413284;
   (1, 2, 1) 0.550128 0.449872;
   (2, 2, 1) 0.524966 0.475034;
}
probability (n_88 | n_82, n_42) {
   (0, 0) 0.594607 0.405393;
   (1, 0) 0.575503 0.424497;
   (0, 1) 0.412952 0.587048;
   (1, 1) 0.439375 0.560625;
   (0, 2) 0.58205 0.41795;
   (1, 2) 0.167213 0.832787;
}
probability (n_89 | n_80, n_90) {
   (0, 0) 0.575322 0.108508 0.31617;
   (1, 0) 0.168722 0.177298 0.653981;
   (0, 1) 0.53651 0.301693 0.161796;
   (1, 1) 0.130255 0.163775 0.70597;
}
probability (n_90 | n_98) {
   (0) 0.605595 0.394405;
   (1) 0.931811 0.0681895;
   (2) 0.740475 0.259525;
}
probability (n_91) {
   default 0.299575 0.311584 0.388842;
}
probability (n_92) {
   default 0.357644 0.224896 0.41746;
}
probability (n_93 | n_79) {
   (0) 0.318723 0.59831 0.0829671;
   (1) 0.370867 0.52012 0.109013;
   (2) 0.0840387 0.643479 0.272482;
}
probability (n_94 | n_78) {
   (0) 0.851913 0.148087;
   (1) 0.538949 0.461051;
}
probability (n_95) {
   default 0.413779 0.586221;
}
probability (n_96 | n_95, n_84) {
   (0, 0) 0.42258 0.50105 0.0763699;
   (1, 0) 0.687198 0.0178255 0.294977;
   (0, 1) 0.547479 0.196435 0.256086;
   (1, 1) 0.222229 0.37759 0.400181;
   (0, 2) 0.52075 0.336294 0.142955;
   (1, 2) 0.385043 0.262503 0.352454;
}
probability (n_97 | n_95) {
   (0) 0.00115705 0.266055 0.732788;
   (1) 0.160393 0.318891 0.520716;
}
probability (n_98) {
   default 0.423573 0.0236193 0.552808;
}
probability (n_99 | n_47) {
   (0) 0.246937 0.753063;
   (1) 0.803352 0.196648;
}

