network "unnamedBN" {
// written by aGrUM 0.20.2.9
}

variable n_0 {
   type discrete[2] {0, 1};
}

variable n_1 {
   type discrete[3] {0, 1, 2};
}

variable n_2 {
   type discrete[2] {0, 1};
}

variable n_3 {
   type discrete[2] {0, 1};
}

variable n_4 {
   type discrete[3] {0, 1, 2};
}

variable n_5 {
   type discrete[2] {0, 1};
}

variable n_6 {
   type discrete[3] {0, 1, 2};
}

variable n_7 {
   type discrete[3] {0, 1, 2};
}

variable n_8 {
   type discrete[3] {0, 1, 2};
}

variable n_9 {
   type discrete[3] {0, 1, 2};
}

variable n_10 {
   type discrete[3] {0, 1, 2};
}

variable n_11 {
   type discrete[2] {0, 1};
}

variable n_12 {
   type discrete[3] {0, 1, 2};
}

variable n_13 {
   type discrete[2] {0, 1};
}

variable n_14 {
   type discrete[3] {0, 1, 2};
}

variable n_15 {
   type discrete[3] {0, 1, 2};
}

variable n_16 {
   type discrete[2] {0, 1};
}

variable n_17 {
   type discrete[2] {0, 1};
}

variable n_18 {
   type discrete[2] {0, 1};
}

variable n_19 {
   type discrete[3] {0, 1, 2};
}

variable n_20 {
   type discrete[2] {0, 1};
}

variable n_21 {
   type discrete[3] {0, 1, 2};
}

variable n_22 {
   type discrete[3] {0, 1, 2};
}

variable n_23 {
   type discrete[3] {0, 1, 2};
}

variable n_24 {
   type discrete[3] {0, 1, 2};
}

variable n_25 {
   type discrete[3] {0, 1, 2};
}

variable n_26 {
   type discrete[2] {0, 1};
}

variable n_27 {
   type discrete[2] {0, 1};
}

variable n_28 {
   type discrete[2] {0, 1};
}

variable n_29 {
   type discrete[2] {0, 1};
}

variable n_30 {
   type discrete[2] {0, 1};
}

variable n_31 {
   type discrete[2] {0, 1};
}

variable n_32 {
   type discrete[2] {0, 1};
}

variable n_33 {
   type discrete[3] {0, 1, 2};
}

variable n_34 {
   type discrete[3] {0, 1, 2};
}

variable n_35 {
   type discrete[3] {0, 1, 2};
}

variable n_36 {
   type discrete[3] {0, 1, 2};
}

variable n_37 {
   type discrete[2] {0, 1};
}

variable n_38 {
   type discrete[3] {0, 1, 2};
}

variable n_39 {
   type discrete[3] {0, 1, 2};
}

variable n_40 {
   type discrete[3] {0, 1, 2};
}

variable n_41 {
   type discrete[3] {0, 1, 2};
}

variable n_42 {
   type discrete[3] {0, 1, 2};
}

variable n_43 {
   type discrete[2] {0, 1};
}

variable n_44 {
   type discrete[2] {0, 1};
}

variable n_45 {
   type discrete[2] {0, 1};
}

variable n_46 {
   type discrete[2] {0, 1};
}

variable n_47 {
   type discrete[2] {0, 1};
}

variable n_48 {
   type discrete[2] {0, 1};
}

variable n_49 {
   type discrete[2] {0, 1};
}

variable n_50 {
   type discrete[3] {0, 1, 2};
}

variable n_51 {
   type discrete[2] {0, 1};
}

variable n_52 {
   type discrete[3] {0, 1, 2};
}

variable n_53 {
   type discrete[2] {0, 1};
}

variable n_54 {
   type discrete[3] {0, 1, 2};
}

variable n_55 {
   type discrete[2] {0, 1};
}

variable n_56 {
   type discrete[3] {0, 1, 2};
}

variable n_57 {
   type discrete[3] {0, 1, 2};
}

variable n_58 {
   type discrete[3] {0, 1, 2};
}

variable n_59 {
   type discrete[3] {0, 1, 2};
}

variable n_60 {
   type discrete[3] {0, 1, 2};
}

variable n_61 {
   type discrete[3] {0, 1, 2};
}

variable n_62 {
   type discrete[3] {0, 1, 2};
}

variable n_63 {
   type discrete[3] {0, 1, 2};
}

variable n_64 {
   type discrete[3] {0, 1, 2};
}

variable n_65 {
   type discrete[3] {0, 1, 2};
}

variable n_66 {
   type discrete[2] {0, 1};
}

variable n_67 {
   type discrete[2] {0, 1};
}

variable n_68 {
   type discrete[3] {0, 1, 2};
}

variable n_69 {
   type discrete[2] {0, 1};
}

variable n_70 {
   type discrete[2] {0, 1};
}

variable n_71 {
   type discrete[2] {0, 1};
}

variable n_72 {
   type discrete[2] {0, 1};
}

variable n_73 {
   type discrete[2] {0, 1};
}

variable n_74 {
   type discrete[2] {0, 1};
}

variable n_75 {
   type discrete[2] {0, 1};
}

variable n_76 {
   type discrete[3] {0, 1, 2};
}

variable n_77 {
   type discrete[3] {0, 1, 2};
}

variable n_78 {
   type discrete[2] {0, 1};
}

variable n_79 {
   type discrete[3] {0, 1, 2};
}

variable n_80 {
   type discrete[3] {0, 1, 2};
}

variable n_81 {
   type discrete[2] {0, 1};
}

variable n_82 {
   type discrete[2] {0, 1};
}

variable n_83 {
   type discrete[3] {0, 1, 2};
}

variable n_84 {
   type discrete[2] {0, 1};
}

variable n_85 {
   type discrete[3] {0, 1, 2};
}

variable n_86 {
   type discrete[2] {0, 1};
}

variable n_87 {
   type discrete[2] {0, 1};
}

variable n_88 {
   type discrete[2] {0, 1};
}

variable n_89 {
   type discrete[3] {0, 1, 2};
}

variable n_90 {
   type discrete[3] {0, 1, 2};
}

variable n_91 {
   type discrete[2] {0, 1};
}

variable n_92 {
   type discrete[2] {0, 1};
}

variable n_93 {
   type discrete[3] {0, 1, 2};
}

variable n_94 {
   type discrete[2] {0, 1};
}

variable n_95 {
   type discrete[2] {0, 1};
}

variable n_96 {
   type discrete[3] {0, 1, 2};
}

variable n_97 {
   type discrete[3] {0, 1, 2};
}

variable n_98 {
   type discrete[2] {0, 1};
}

variable n_99 {
   type discrete[3] {0, 1, 2};
}

probability (n_0 | n_33) {
   (0) 0.393405 0.606595;
   (1) 0.335738 0.664262;
   (2) 0.227026 0.772974;
}
probability (n_1) {
   default 0.334285 0.365022 0.300693;
}
probability (n_2 | n_1) {
   (0) 0.529444 0.470556;
   (1) 0.51715 0.48285;
   (2) 0.33392 0.66608;
}
probability (n_3 | n_2, n_5, n_32) {
   (0, 0, 0) 0.376234 0.623766;
   (1, 0, 0) 0.705933 0.294067;
   (0, 1, 0) 0.595837 0.404163;
   (1, 1, 0) 0.493288 0.506712;
   (0, 0, 1) 0.142287 0.857713;
   (1, 0, 1) 0.497864 0.502136;
   (0, 1, 1) 0.513153 0.486847;
   (1, 1, 1) 0.709823 0.290177;
}
probability (n_4) {
   default 0.0884283 0.530396 0.381175;
}
probability (n_5) {
   default 0.459656 0.540344;
}
probability (n_6) {
   default 0.000515627 0.476852 0.522632;
}
probability (n_7 | n_2, n_47) {
   (0, 0) 0.346435 0.339645 0.31392;
   (1, 0) 0.263479 0.223618 0.512903;
   (0, 1) 0.41122 0.508431 0.0803489;
   (1, 1) 0.398363 0.330687 0.270949;
}
probability (n_8 | n_7, n_61) {
   (0, 0) 0.0861289 0.49687 0.417002;
   (1, 0) 0.404558 0.103248 0.492194;
   (2, 0) 0.860432 0.0126959 0.126873;
   (0, 1) 0.474385 0.241454 0.28416;
   (1, 1) 0.255309 0.552199 0.192492;
   (2, 1) 0.198106 0.395664 0.406229;
   (0, 2) 0.137853 0.424564 0.437583;
   (1, 2) 0.257691 0.383147 0.359162;
   (2, 2) 0.445208 0.264045 0.290747;
}
probability (n_9 | n_8) {
   (0) 0.796462 0.161736 0.0418021;
   (1) 0.187348 0.224369 0.588284;
   (2) 0.388951 0.23493 0.37612;
}
probability (n_10 | n_8, n_34) {
   (0, 0) 0.473519 0.171692 0.354789;
   (1, 0) 0.0187434 0.459934 0.521322;
   (2, 0) 0.230508 0.169962 0.59953;
   (0, 1) 0.305395 0.331629 0.362976;
   (1, 1) 0.355002 0.507967 0.13703;
   (2, 1) 0.0963285 0.663962 0.239709;
   (0, 2) 0.618678 0.0449248 0.336397;
   (1, 2) 0.196212 0.423296 0.380492;
   (2, 2) 0.170332 0.422843 0.406825;
}
probability (n_11 | n_2) {
   (0) 0.619387 0.380613;
   (1) 0.317858 0.682142;
}
probability (n_12 | n_13, n_29) {
   (0, 0) 0.347828 0.432089 0.220083;
   (1, 0) 0.441826 0.360898 0.197276;
   (0, 1) 0.530578 0.417516 0.0519067;
   (1, 1) 0.292056 0.218464 0.489479;
}
probability (n_13) {
   default 0.309428 0.690572;
}
probability (n_14 | n_68, n_77) {
   (0, 0) 0.0843883 0.178869 0.736743;
   (1, 0) 0.21894 0.112634 0.668426;
   (2, 0) 0.44069 0.26606 0.293249;
   (0, 1) 0.252612 0.489926 0.257462;
   (1, 1) 0.269219 0.689807 0.0409743;
   (2, 1) 0.377676 0.287564 0.33476;
   (0, 2) 0.221118 0.698442 0.08044;
   (1, 2) 0.411277 0.0209164 0.567807;
   (2, 2) 0.388235 0.125567 0.486199;
}
probability (n_15 | n_14, n_95) {
   (0, 0) 0.327658 0.424719 0.247623;
   (1, 0) 0.55221 0.0308315 0.416958;
   (2, 0) 0.371756 0.165817 0.462428;
   (0, 1) 0.529102 0.100375 0.370523;
   (1, 1) 0.0178674 0.723305 0.258827;
   (2, 1) 0.3437 0.642187 0.0141131;
}
probability (n_16 | n_15) {
   (0) 0.514395 0.485605;
   (1) 0.892974 0.107026;
   (2) 0.71566 0.28434;
}
probability (n_17 | n_13) {
   (0) 0.264361 0.735639;
   (1) 0.75616 0.24384;
}
probability (n_18 | n_27) {
   (0) 0.639856 0.360144;
   (1) 0.512706 0.487294;
}
probability (n_19 | n_18) {
   (0) 0.388292 0.125184 0.486523;
   (1) 0.299667 0.55705 0.143283;
}
probability (n_20 | n_30, n_13) {
   (0, 0) 0.511015 0.488985;
   (1, 0) 0.450124 0.549876;
   (0, 1) 0.117235 0.882765;
   (1, 1) 0.587169 0.412831;
}
probability (n_21 | n_13, n_76) {
   (0, 0) 0.250385 0.344567 0.405048;
   (1, 0) 0.311173 0.330299 0.358528;
   (0, 1) 0.575924 0.355888 0.0681882;
   (1, 1) 0.410359 0.401782 0.187858;
   (0, 2) 0.00572082 0.437554 0.556725;
   (1, 2) 0.54131 0.20075 0.25794;
}
probability (n_22 | n_13, n_34) {
   (0, 0) 0.324138 0.335564 0.340298;
   (1, 0) 0.282239 0.462278 0.255483;
   (0, 1) 0.236632 0.476354 0.287015;
   (1, 1) 0.261358 0.247899 0.490743;
   (0, 2) 0.515503 0.429646 0.0548515;
   (1, 2) 0.0235312 0.260157 0.716312;
}
probability (n_23) {
   default 0.716084 0.0422087 0.241708;
}
probability (n_24 | n_23) {
   (0) 0.450448 0.468795 0.0807564;
   (1) 0.154685 0.451556 0.393759;
   (2) 0.241138 0.691674 0.0671886;
}
probability (n_25 | n_42, n_66, n_23) {
   (0, 0, 0) 0.308423 0.165765 0.525811;
   (1, 0, 0) 0.116093 0.466044 0.417862;
   (2, 0, 0) 0.55109 0.128993 0.319917;
   (0, 1, 0) 0.0931701 0.380363 0.526467;
   (1, 1, 0) 0.555502 0.189637 0.254861;
   (2, 1, 0) 0.037779 0.313247 0.648974;
   (0, 0, 1) 0.468825 0.100127 0.431049;
   (1, 0, 1) 0.138976 0.101058 0.759966;
   (2, 0, 1) 0.209555 0.299356 0.491089;
   (0, 1, 1) 0.139006 0.619597 0.241397;
   (1, 1, 1) 0.251769 0.102478 0.645754;
   (2, 1, 1) 0.616434 0.179914 0.203652;
   (0, 0, 2) 0.582622 0.0196667 0.397711;
   (1, 0, 2) 0.3593 0.400084 0.240616;
   (2, 0, 2) 0.634811 0.0889141 0.276275;
   (0, 1, 2) 0.311764 0.129193 0.559043;
   (1, 1, 2) 0.150701 0.032864 0.816435;
   (2, 1, 2) 0.796771 0.143811 0.0594182;
}
probability (n_26 | n_27, n_78) {
   (0, 0) 0.598752 0.401248;
   (1, 0) 0.549856 0.450144;
   (0, 1) 0.84144 0.15856;
   (1, 1) 0.447168 0.552832;
}
probability (n_27 | n_84) {
   (0) 0.58431 0.41569;
   (1) 0.620055 0.379945;
}
probability (n_28 | n_27) {
   (0) 0.475704 0.524296;
   (1) 0.344571 0.655429;
}
probability (n_29) {
   default 0.495081 0.504919;
}
probability (n_30 | n_6) {
   (0) 0.0842321 0.915768;
   (1) 0.622451 0.377549;
   (2) 0.0925317 0.907468;
}
probability (n_31 | n_1) {
   (0) 0.503696 0.496304;
   (1) 0.127785 0.872215;
   (2) 0.539195 0.460805;
}
probability (n_32 | n_1) {
   (0) 0.25749 0.74251;
   (1) 0.452276 0.547724;
   (2) 0.550202 0.449798;
}
probability (n_33) {
   default 0.891068 0.0136836 0.0952488;
}
probability (n_34 | n_54) {
   (0) 0.119096 0.129315 0.751589;
   (1) 0.381698 0.378 0.240302;
   (2) 0.162932 0.76664 0.0704281;
}
probability (n_35 | n_37, n_38, n_80) {
   (0, 0, 0) 0.372594 0.294108 0.333299;
   (1, 0, 0) 0.395023 0.0800177 0.524959;
   (0, 1, 0) 0.547186 0.366546 0.0862679;
   (1, 1, 0) 0.390483 0.402135 0.207382;
   (0, 2, 0) 0.740424 0.000875854 0.2587;
   (1, 2, 0) 0.268104 0.40639 0.325506;
   (0, 0, 1) 0.367288 0.337595 0.295117;
   (1, 0, 1) 0.351373 0.340247 0.30838;
   (0, 1, 1) 0.458274 0.296251 0.245474;
   (1, 1, 1) 0.246822 0.737954 0.015224;
   (0, 2, 1) 0.198726 0.33217 0.469104;
   (1, 2, 1) 0.541189 0.037553 0.421258;
   (0, 0, 2) 0.482775 0.410452 0.106773;
   (1, 0, 2) 0.432463 0.159354 0.408182;
   (0, 1, 2) 0.188702 0.150536 0.660761;
   (1, 1, 2) 0.276435 0.377629 0.345936;
   (0, 2, 2) 0.166866 0.468488 0.364645;
   (1, 2, 2) 0.49262 0.298141 0.209239;
}
probability (n_36 | n_35, n_97) {
   (0, 0) 0.360345 0.184289 0.455366;
   (1, 0) 0.127339 0.442623 0.430038;
   (2, 0) 0.17061 0.802297 0.0270929;
   (0, 1) 0.466244 0.478731 0.0550244;
   (1, 1) 0.293732 0.321164 0.385104;
   (2, 1) 0.540869 0.383038 0.0760922;
   (0, 2) 0.36158 0.461702 0.176718;
   (1, 2) 0.553315 0.394494 0.0521913;
   (2, 2) 0.109325 0.410137 0.480538;
}
probability (n_37 | n_27) {
   (0) 0.582386 0.417614;
   (1) 0.150343 0.849657;
}
probability (n_38 | n_76) {
   (0) 0.0985745 0.340158 0.561267;
   (1) 0.350327 0.144648 0.505025;
   (2) 0.254207 0.496387 0.249407;
}
probability (n_39 | n_40) {
   (0) 0.189293 0.474793 0.335914;
   (1) 0.516144 0.274792 0.209064;
   (2) 0.571113 0.0335574 0.39533;
}
probability (n_40 | n_72) {
   (0) 0.164506 0.42857 0.406924;
   (1) 0.441306 0.0901203 0.468574;
}
probability (n_41 | n_34, n_45) {
   (0, 0) 0.442823 0.335012 0.222164;
   (1, 0) 0.407032 0.102839 0.490129;
   (2, 0) 0.519167 0.295325 0.185509;
   (0, 1) 0.304897 0.459032 0.236071;
   (1, 1) 0.663688 0.0982765 0.238035;
   (2, 1) 0.378805 0.460167 0.161029;
}
probability (n_42 | n_33, n_43) {
   (0, 0) 0.481829 0.195468 0.322703;
   (1, 0) 0.31106 0.0866973 0.602242;
   (2, 0) 0.471836 0.233295 0.294869;
   (0, 1) 0.415947 0.132044 0.452009;
   (1, 1) 0.472868 0.130178 0.396954;
   (2, 1) 0.44014 0.311651 0.248209;
}
probability (n_43 | n_46, n_3) {
   (0, 0) 0.768293 0.231707;
   (1, 0) 0.520472 0.479528;
   (0, 1) 0.572227 0.427773;
   (1, 1) 0.131484 0.868516;
}
probability (n_44 | n_45) {
   (0) 0.59376 0.40624;
   (1) 0.960206 0.0397944;
}
probability (n_45) {
   default 0.397095 0.602905;
}
probability (n_46 | n_82) {
   (0) 0.672932 0.327068;
   (1) 0.271525 0.728475;
}
probability (n_47 | n_25) {
   (0) 0.950843 0.0491567;
   (1) 0.683654 0.316346;
   (2) 0.813559 0.186441;
}
probability (n_48 | n_42, n_49) {
   (0, 0) 0.472213 0.527787;
   (1, 0) 0.352703 0.647297;
   (2, 0) 0.075173 0.924827;
   (0, 1) 0.0666325 0.933368;
   (1, 1) 0.116993 0.883007;
   (2, 1) 0.363042 0.636958;
}
probability (n_49) {
   default 0.38914 0.61086;
}
probability (n_50 | n_52, n_74, n_95, n_70, n_38) {
   (0, 0, 0, 0, 0) 0.08723 0.458791 0.453979;
   (1, 0, 0, 0, 0) 0.0130607 0.679324 0.307616;
   (2, 0, 0, 0, 0) 0.472551 0.185296 0.342153;
   (0, 1, 0, 0, 0) 0.0375639 0.597809 0.364627;
   (1, 1, 0, 0, 0) 0.0536037 0.434465 0.511931;
   (2, 1, 0, 0, 0) 0.419 0.52522 0.0557802;
   (0, 0, 1, 0, 0) 0.510395 0.146118 0.343486;
   (1, 0, 1, 0, 0) 0.00754056 0.235436 0.757024;
   (2, 0, 1, 0, 0) 0.431933 0.214117 0.35395;
   (0, 1, 1, 0, 0) 0.0548703 0.0228008 0.922329;
   (1, 1, 1, 0, 0) 0.369687 0.132144 0.498169;
   (2, 1, 1, 0, 0) 0.318275 0.172364 0.509361;
   (0, 0, 0, 1, 0) 0.440946 0.0323885 0.526665;
   (1, 0, 0, 1, 0) 0.304094 0.0851428 0.610763;
   (2, 0, 0, 1, 0) 0.524649 0.120509 0.354842;
   (0, 1, 0, 1, 0) 0.359853 0.396672 0.243475;
   (1, 1, 0, 1, 0) 0.00504861 0.51098 0.483972;
   (2, 1, 0, 1, 0) 0.383323 0.563873 0.0528035;
   (0, 0, 1, 1, 0) 0.235467 0.449577 0.314955;
   (1, 0, 1, 1, 0) 0.440868 0.333143 0.225989;
   (2, 0, 1, 1, 0) 0.466799 0.106327 0.426874;
   (0, 1, 1, 1, 0) 0.216377 0.306943 0.47668;
   (1, 1, 1, 1, 0) 0.45009 0.143236 0.406675;
   (2, 1, 1, 1, 0) 0.347251 0.272688 0.380061;
   (0, 0, 0, 0, 1) 0.4562 0.413334 0.130466;
   (1, 0, 0, 0, 1) 0.31164 0.503923 0.184437;
   (2, 0, 0, 0, 1) 0.581997 0.340026 0.0779768;
   (0, 1, 0, 0, 1) 0.767144 0.175932 0.0569239;
   (1, 1, 0, 0, 1) 0.444412 0.241214 0.314374;
   (2, 1, 0, 0, 1) 0.344168 0.356838 0.298994;
   (0, 0, 1, 0, 1) 0.627644 0.0103 0.362056;
   (1, 0, 1, 0, 1) 0.217182 0.222983 0.559835;
   (2, 0, 1, 0, 1) 0.235307 0.431689 0.333004;
   (0, 1, 1, 0, 1) 0.0527213 0.1963 0.750978;
   (1, 1, 1, 0, 1) 0.0347865 0.586387 0.378826;
   (2, 1, 1, 0, 1) 0.35576 0.413293 0.230947;
   (0, 0, 0, 1, 1) 0.320304 0.175166 0.504531;
   (1, 0, 0, 1, 1) 0.371401 0.0502274 0.578371;
   (2, 0, 0, 1, 1) 0.315563 0.48463 0.199807;
   (0, 1, 0, 1, 1) 0.216467 0.235338 0.548194;
   (1, 1, 0, 1, 1) 0.408056 0.055736 0.536208;
   (2, 1, 0, 1, 1) 0.0264771 0.737357 0.236166;
   (0, 0, 1, 1, 1) 0.461342 0.303939 0.234718;
   (1, 0, 1, 1, 1) 0.147005 0.41472 0.438275;
   (2, 0, 1, 1, 1) 0.136277 0.4471 0.416623;
   (0, 1, 1, 1, 1) 0.942359 0.0346824 0.0229584;
   (1, 1, 1, 1, 1) 0.0335929 0.621772 0.344636;
   (2, 1, 1, 1, 1) 0.636337 0.0655017 0.298162;
   (0, 0, 0, 0, 2) 0.382277 0.41805 0.199673;
   (1, 0, 0, 0, 2) 0.0961523 0.0271452 0.876702;
   (2, 0, 0, 0, 2) 0.378998 0.276618 0.344383;
   (0, 1, 0, 0, 2) 0.416665 0.440382 0.142952;
   (1, 1, 0, 0, 2) 0.335407 0.274871 0.389722;
   (2, 1, 0, 0, 2) 0.138569 0.518981 0.342451;
   (0, 0, 1, 0, 2) 0.701274 0.060995 0.23773;
   (1, 0, 1, 0, 2) 0.349226 0.469373 0.181401;
   (2, 0, 1, 0, 2) 0.283679 0.380654 0.335668;
   (0, 1, 1, 0, 2) 0.37582 0.27191 0.352269;
   (1, 1, 1, 0, 2) 0.249692 0.276081 0.474227;
   (2, 1, 1, 0, 2) 0.379079 0.249642 0.371279;
   (0, 0, 0, 1, 2) 0.393131 0.303317 0.303552;
   (1, 0, 0, 1, 2) 0.0574992 0.462284 0.480217;
   (2, 0, 0, 1, 2) 0.221385 0.424638 0.353977;
   (0, 1, 0, 1, 2) 0.116846 0.622802 0.260352;
   (1, 1, 0, 1, 2) 0.368226 0.411794 0.21998;
   (2, 1, 0, 1, 2) 0.0513377 0.545389 0.403273;
   (0, 0, 1, 1, 2) 0.42215 0.229105 0.348746;
   (1, 0, 1, 1, 2) 0.489685 0.400301 0.110014;
   (2, 0, 1, 1, 2) 0.165472 0.467702 0.366826;
   (0, 1, 1, 1, 2) 0.425804 0.127757 0.446439;
   (1, 1, 1, 1, 2) 0.402752 0.464225 0.133023;
   (2, 1, 1, 1, 2) 0.516321 0.459657 0.0240221;
}
probability (n_51 | n_50, n_83) {
   (0, 0) 0.957157 0.0428426;
   (1, 0) 0.758809 0.241191;
   (2, 0) 0.29441 0.70559;
   (0, 1) 0.375465 0.624535;
   (1, 1) 0.199781 0.800219;
   (2, 1) 0.56043 0.43957;
   (0, 2) 0.485128 0.514872;
   (1, 2) 0.587722 0.412278;
   (2, 2) 0.772684 0.227316;
}
probability (n_52 | n_70, n_69) {
   (0, 0) 0.319093 0.356937 0.323971;
   (1, 0) 0.20753 0.785796 0.00667342;
   (0, 1) 0.085988 0.236749 0.677263;
   (1, 1) 0.402738 0.0500741 0.547188;
}
probability (n_53 | n_50, n_88) {
   (0, 0) 0.284281 0.715719;
   (1, 0) 0.291927 0.708073;
   (2, 0) 0.624655 0.375345;
   (0, 1) 0.431236 0.568764;
   (1, 1) 0.433614 0.566386;
   (2, 1) 0.521872 0.478128;
}
probability (n_54 | n_33, n_55) {
   (0, 0) 0.182892 0.412974 0.404134;
   (1, 0) 0.268172 0.39556 0.336268;
   (2, 0) 0.544761 0.217554 0.237685;
   (0, 1) 0.160901 0.248611 0.590488;
   (1, 1) 0.303929 0.554706 0.141364;
   (2, 1) 0.503445 0.411053 0.0855024;
}
probability (n_55) {
   default 0.966995 0.0330052;
}
probability (n_56 | n_73) {
   (0) 0.367381 0.248746 0.383874;
   (1) 0.643724 0.129113 0.227162;
}
probability (n_57 | n_65, n_67, n_68, n_58) {
   (0, 0, 0, 0) 0.16771 0.343102 0.489188;
   (1, 0, 0, 0) 0.727218 0.0371786 0.235603;
   (2, 0, 0, 0) 0.283107 0.423861 0.293032;
   (0, 1, 0, 0) 0.799436 0.157957 0.0426067;
   (1, 1, 0, 0) 0.216884 0.455247 0.327868;
   (2, 1, 0, 0) 0.400536 0.217565 0.381899;
   (0, 0, 1, 0) 0.0373975 0.484935 0.477668;
   (1, 0, 1, 0) 0.379203 0.293364 0.327433;
   (2, 0, 1, 0) 0.514211 0.317828 0.16796;
   (0, 1, 1, 0) 0.491424 0.211704 0.296872;
   (1, 1, 1, 0) 0.602379 0.371815 0.0258058;
   (2, 1, 1, 0) 0.666528 0.272085 0.0613875;
   (0, 0, 2, 0) 0.0614468 0.47144 0.467113;
   (1, 0, 2, 0) 0.40821 0.541338 0.050452;
   (2, 0, 2, 0) 0.552976 0.0686761 0.378348;
   (0, 1, 2, 0) 0.0165183 0.443756 0.539726;
   (1, 1, 2, 0) 0.379458 0.46238 0.158161;
   (2, 1, 2, 0) 0.441118 0.197294 0.361588;
   (0, 0, 0, 1) 0.570392 0.177868 0.25174;
   (1, 0, 0, 1) 0.378117 0.37603 0.245853;
   (2, 0, 0, 1) 0.224484 0.6417 0.133815;
   (0, 1, 0, 1) 0.212759 0.454268 0.332974;
   (1, 1, 0, 1) 0.248692 0.498597 0.252711;
   (2, 1, 0, 1) 0.267878 0.452054 0.280068;
   (0, 0, 1, 1) 0.372663 0.23464 0.392697;
   (1, 0, 1, 1) 0.717899 0.219059 0.0630419;
   (2, 0, 1, 1) 0.300962 0.364113 0.334925;
   (0, 1, 1, 1) 0.468411 0.420342 0.111247;
   (1, 1, 1, 1) 0.454554 0.290718 0.254728;
   (2, 1, 1, 1) 0.0519366 0.519398 0.428666;
   (0, 0, 2, 1) 0.424505 0.463013 0.112482;
   (1, 0, 2, 1) 0.467287 0.00678733 0.525926;
   (2, 0, 2, 1) 0.218501 0.289077 0.492422;
   (0, 1, 2, 1) 0.430796 0.422188 0.147017;
   (1, 1, 2, 1) 0.10976 0.185349 0.704891;
   (2, 1, 2, 1) 0.381219 0.0163001 0.602481;
   (0, 0, 0, 2) 0.298067 0.376891 0.325042;
   (1, 0, 0, 2) 0.23623 0.448552 0.315217;
   (2, 0, 0, 2) 0.295646 0.213498 0.490855;
   (0, 1, 0, 2) 0.565711 0.255419 0.17887;
   (1, 1, 0, 2) 0.220817 0.0458183 0.733365;
   (2, 1, 0, 2) 0.198783 0.370217 0.431;
   (0, 0, 1, 2) 0.365232 0.189369 0.445399;
   (1, 0, 1, 2) 0.0748611 0.783517 0.141622;
   (2, 0, 1, 2) 0.521244 0.0257994 0.452956;
   (0, 1, 1, 2) 0.506277 0.301698 0.192025;
   (1, 1, 1, 2) 0.840535 0.102652 0.0568131;
   (2, 1, 1, 2) 0.18122 0.308448 0.510333;
   (0, 0, 2, 2) 0.392103 0.547542 0.0603548;
   (1, 0, 2, 2) 0.298009 0.447965 0.254025;
   (2, 0, 2, 2) 0.519009 0.149039 0.331952;
   (0, 1, 2, 2) 0.439938 0.341182 0.21888;
   (1, 1, 2, 2) 0.560001 0.0517717 0.388227;
   (2, 1, 2, 2) 0.325752 0.154954 0.519294;
}
probability (n_58 | n_40) {
   (0) 0.323043 0.313024 0.363933;
   (1) 0.630135 0.281653 0.0882117;
   (2) 0.45542 0.014073 0.530507;
}
probability (n_59 | n_62) {
   (0) 0.194126 0.234507 0.571366;
   (1) 0.366471 0.38834 0.245189;
   (2) 0.0144928 0.503527 0.48198;
}
probability (n_60 | n_59, n_95, n_45) {
   (0, 0, 0) 0.283887 0.287634 0.428479;
   (1, 0, 0) 0.144947 0.400448 0.454606;
   (2, 0, 0) 0.3632 0.259571 0.37723;
   (0, 1, 0) 0.156836 0.416604 0.42656;
   (1, 1, 0) 0.538801 0.229584 0.231615;
   (2, 1, 0) 0.342593 0.152576 0.504831;
   (0, 0, 1) 0.352844 0.220332 0.426825;
   (1, 0, 1) 0.567208 0.413996 0.0187957;
   (2, 0, 1) 0.230636 0.264189 0.505174;
   (0, 1, 1) 0.0499435 0.445742 0.504315;
   (1, 1, 1) 0.68554 0.116071 0.19839;
   (2, 1, 1) 0.335718 0.196567 0.467716;
}
probability (n_61 | n_60, n_38, n_44) {
   (0, 0, 0) 0.0930072 0.75545 0.151542;
   (1, 0, 0) 0.712635 0.251437 0.0359285;
   (2, 0, 0) 0.519072 0.151428 0.3295;
   (0, 1, 0) 0.0471005 0.496287 0.456612;
   (1, 1, 0) 0.665498 0.285621 0.0488811;
   (2, 1, 0) 0.414181 0.131596 0.454223;
   (0, 2, 0) 0.433562 0.438369 0.128069;
   (1, 2, 0) 0.305613 0.342829 0.351557;
   (2, 2, 0) 0.16541 0.249521 0.58507;
   (0, 0, 1) 0.295873 0.608718 0.0954095;
   (1, 0, 1) 0.115457 0.801 0.0835427;
   (2, 0, 1) 0.220708 0.524436 0.254856;
   (0, 1, 1) 0.262152 0.330853 0.406995;
   (1, 1, 1) 0.486921 0.32875 0.184329;
   (2, 1, 1) 0.309193 0.252163 0.438645;
   (0, 2, 1) 0.222439 0.41705 0.360512;
   (1, 2, 1) 0.150035 0.472606 0.377359;
   (2, 2, 1) 0.450498 0.304185 0.245317;
}
probability (n_62 | n_92, n_94) {
   (0, 0) 0.0969038 0.422358 0.480738;
   (1, 0) 0.410417 0.399195 0.190388;
   (0, 1) 0.147053 0.113117 0.73983;
   (1, 1) 0.229681 0.489174 0.281145;
}
probability (n_63 | n_57, n_99, n_64) {
   (0, 0, 0) 0.27972 0.377638 0.342642;
   (1, 0, 0) 0.16346 0.584819 0.251721;
   (2, 0, 0) 0.4047 0.0480699 0.54723;
   (0, 1, 0) 0.0996222 0.434259 0.466119;
   (1, 1, 0) 0.486355 0.385219 0.128426;
   (2, 1, 0) 0.415457 0.147251 0.437292;
   (0, 2, 0) 0.692192 0.283528 0.02428;
   (1, 2, 0) 0.190699 0.163821 0.645479;
   (2, 2, 0) 0.679136 0.307666 0.0131976;
   (0, 0, 1) 0.139887 0.475603 0.38451;
   (1, 0, 1) 0.568865 0.138642 0.292492;
   (2, 0, 1) 0.0803397 0.227333 0.692327;
   (0, 1, 1) 0.179895 0.380524 0.439581;
   (1, 1, 1) 0.431905 0.380183 0.187912;
   (2, 1, 1) 0.362615 0.510367 0.127018;
   (0, 2, 1) 0.538881 0.219631 0.241487;
   (1, 2, 1) 0.346011 0.0580576 0.595932;
   (2, 2, 1) 0.249012 0.205125 0.545863;
   (0, 0, 2) 0.539107 0.0977166 0.363176;
   (1, 0, 2) 0.280372 0.160031 0.559596;
   (2, 0, 2) 0.354022 0.266375 0.379603;
   (0, 1, 2) 0.552481 0.38398 0.0635394;
   (1, 1, 2) 0.470642 0.0217979 0.50756;
   (2, 1, 2) 0.463541 0.0110334 0.525425;
   (0, 2, 2) 0.0375045 0.507418 0.455077;
   (1, 2, 2) 0.155561 0.295865 0.548574;
   (2, 2, 2) 0.257852 0.352951 0.389197;
}
probability (n_64) {
   default 0.342356 0.31998 0.337664;
}
probability (n_65 | n_71) {
   (0) 0.190741 0.512378 0.296882;
   (1) 0.427347 0.0510869 0.521566;
}
probability (n_66) {
   default 0.235191 0.764809;
}
probability (n_67 | n_62) {
   (0) 0.636246 0.363754;
   (1) 0.486029 0.513971;
   (2) 0.270616 0.729384;
}
probability (n_68) {
   default 0.738226 0.060824 0.20095;
}
probability (n_69) {
   default 0.550415 0.449585;
}
probability (n_70 | n_69, n_3) {
   (0, 0) 0.343293 0.656707;
   (1, 0) 0.376465 0.623535;
   (0, 1) 0.218165 0.781835;
   (1, 1) 0.179478 0.820522;
}
probability (n_71) {
   default 0.299194 0.700806;
}
probability (n_72 | n_27) {
   (0) 0.324038 0.675962;
   (1) 0.456218 0.543782;
}
probability (n_73) {
   default 0.764485 0.235515;
}
probability (n_74 | n_73) {
   (0) 0.00616306 0.993837;
   (1) 0.392068 0.607932;
}
probability (n_75 | n_0, n_92, n_4) {
   (0, 0, 0) 0.532296 0.467704;
   (1, 0, 0) 0.515133 0.484867;
   (0, 1, 0) 0.720714 0.279286;
   (1, 1, 0) 0.383596 0.616404;
   (0, 0, 1) 0.515964 0.484036;
   (1, 0, 1) 0.458262 0.541738;
   (0, 1, 1) 0.576674 0.423326;
   (1, 1, 1) 0.682203 0.317797;
   (0, 0, 2) 0.346287 0.653713;
   (1, 0, 2) 0.231574 0.768426;
   (0, 1, 2) 0.333178 0.666822;
   (1, 1, 2) 0.913646 0.0863542;
}
probability (n_76) {
   default 0.491305 0.121616 0.387079;
}
probability (n_77 | n_76, n_68) {
   (0, 0) 0.205272 0.343104 0.451625;
   (1, 0) 0.208515 0.349215 0.44227;
   (2, 0) 0.636231 0.0670092 0.29676;
   (0, 1) 0.219219 0.482399 0.298382;
   (1, 1) 0.648361 0.201797 0.149842;
   (2, 1) 0.524861 0.273121 0.202017;
   (0, 2) 0.192661 0.395845 0.411494;
   (1, 2) 0.0044726 0.74647 0.249057;
   (2, 2) 0.24149 0.303405 0.455105;
}
probability (n_78) {
   default 0.263594 0.736406;
}
probability (n_79 | n_78) {
   (0) 0.460911 0.480967 0.0581219;
   (1) 0.197486 0.450168 0.352346;
}
probability (n_80 | n_75, n_44) {
   (0, 0) 0.327741 0.513537 0.158721;
   (1, 0) 0.408977 0.23299 0.358033;
   (0, 1) 0.23336 0.462701 0.303939;
   (1, 1) 0.603965 0.0547237 0.341312;
}
probability (n_81 | n_75) {
   (0) 0.291811 0.708189;
   (1) 0.469468 0.530532;
}
probability (n_82 | n_0, n_70) {
   (0, 0) 0.0988934 0.901107;
   (1, 0) 0.647964 0.352036;
   (0, 1) 0.502932 0.497068;
   (1, 1) 0.795693 0.204307;
}
probability (n_83 | n_82) {
   (0) 0.369751 0.186003 0.444246;
   (1) 0.513612 0.367367 0.119021;
}
probability (n_84) {
   default 0.101425 0.898575;
}
probability (n_85) {
   default 0.0899016 0.249145 0.660953;
}
probability (n_86 | n_82, n_81) {
   (0, 0) 0.357004 0.642996;
   (1, 0) 0.395326 0.604674;
   (0, 1) 0.335451 0.664549;
   (1, 1) 0.324674 0.675326;
}
probability (n_87 | n_82) {
   (0) 0.125997 0.874003;
   (1) 0.396379 0.603621;
}
probability (n_88 | n_42) {
   (0) 0.718527 0.281473;
   (1) 0.69888 0.30112;
   (2) 0.360644 0.639356;
}
probability (n_89 | n_88) {
   (0) 0.0679085 0.690159 0.241932;
   (1) 0.242715 0.177538 0.579747;
}
probability (n_90 | n_89) {
   (0) 0.395999 0.196863 0.407137;
   (1) 0.56952 0.31889 0.11159;
   (2) 0.823935 0.0544862 0.121579;
}
probability (n_91 | n_89, n_42) {
   (0, 0) 0.0118229 0.988177;
   (1, 0) 0.382729 0.617271;
   (2, 0) 0.633849 0.366151;
   (0, 1) 0.107698 0.892302;
   (1, 1) 0.827371 0.172629;
   (2, 1) 0.551036 0.448964;
   (0, 2) 0.433157 0.566843;
   (1, 2) 0.806334 0.193666;
   (2, 2) 0.752017 0.247983;
}
probability (n_92 | n_91) {
   (0) 0.606087 0.393913;
   (1) 0.699796 0.300204;
}
probability (n_93 | n_0, n_4, n_94) {
   (0, 0, 0) 0.0807924 0.818351 0.100856;
   (1, 0, 0) 0.0633041 0.587109 0.349587;
   (0, 1, 0) 0.453766 0.313693 0.232541;
   (1, 1, 0) 0.452896 0.537033 0.010071;
   (0, 2, 0) 0.373124 0.388862 0.238014;
   (1, 2, 0) 0.443242 0.246758 0.31;
   (0, 0, 1) 0.889291 0.0452633 0.0654458;
   (1, 0, 1) 0.233873 0.39002 0.376107;
   (0, 1, 1) 0.449049 0.471569 0.0793823;
   (1, 1, 1) 0.0415596 0.565738 0.392702;
   (0, 2, 1) 0.295944 0.0725429 0.631513;
   (1, 2, 1) 0.579966 0.177526 0.242507;
}
probability (n_94 | n_85, n_81) {
   (0, 0) 0.436322 0.563678;
   (1, 0) 0.822243 0.177757;
   (2, 0) 0.517158 0.482842;
   (0, 1) 0.238909 0.761091;
   (1, 1) 0.448285 0.551715;
   (2, 1) 0.916085 0.0839145;
}
probability (n_95 | n_0) {
   (0) 0.465207 0.534793;
   (1) 0.193613 0.806387;
}
probability (n_96 | n_0) {
   (0) 0.427226 0.475258 0.0975161;
   (1) 0.356735 0.440234 0.20303;
}
probability (n_97 | n_96, n_87) {
   (0, 0) 0.485113 0.514845 4.1293e-05;
   (1, 0) 0.401029 0.318246 0.280725;
   (2, 0) 0.179052 0.42003 0.400917;
   (0, 1) 0.0749327 0.54221 0.382857;
   (1, 1) 0.226968 0.508329 0.264704;
   (2, 1) 0.29839 0.128483 0.573127;
}
probability (n_98 | n_96, n_97) {
   (0, 0) 0.182121 0.817879;
   (1, 0) 0.678547 0.321453;
   (2, 0) 0.992534 0.00746556;
   (0, 1) 0.48715 0.51285;
   (1, 1) 0.492372 0.507628;
   (2, 1) 0.37895 0.62105;
   (0, 2) 0.898108 0.101892;
   (1, 2) 0.51438 0.48562;
   (2, 2) 0.924622 0.0753782;
}
probability (n_99) {
   default 0.424741 0.155471 0.419788;
}

