network "unnamedBN" {
// written by aGrUM 0.20.2.9
}

variable n_0 {
   type discrete[3] {0, 1, 2};
}

variable n_1 {
   type discrete[3] {0, 1, 2};
}

variable n_2 {
   type discrete[2] {0, 1};
}

variable n_3 {
   type discrete[3] {0, 1, 2};
}

variable n_4 {
   type discrete[2] {0, 1};
}

variable n_5 {
   type discrete[2] {0, 1};
}

variable n_6 {
   type discrete[2] {0, 1};
}

variable n_7 {
   type discrete[3] {0, 1, 2};
}

variable n_8 {
   type discrete[3] {0, 1, 2};
}

variable n_9 {
   type discrete[2] {0, 1};
}

probability (n_0 | n_7, n_4) {
   (0, 0) 0.295251 0.00925696 0.695492;
   (1, 0) 0.359604 0.31318 0.327216;
   (2, 0) 0.178784 0.614354 0.206862;
   (0, 1) 0.138315 0.20443 0.657255;
   (1, 1) 0.409528 0.412468 0.178004;
   (2, 1) 0.39815 0.273321 0.328529;
}
probability (n_1 | n_2) {
   (0) 0.364796 0.2657 0.369504;
   (1) 0.466469 0.349418 0.184113;
}
probability (n_2 | n_8) {
   (0) 0.0135595 0.986441;
   (1) 0.0144967 0.985503;
   (2) 0.489546 0.510454;
}
probability (n_3 | n_8) {
   (0) 0.208361 0.174997 0.616642;
   (1) 0.166605 0.556616 0.276779;
   (2) 0.71166 0.0871177 0.201222;
}
probability (n_4 | n_3, n_8) {
   (0, 0) 0.233044 0.766956;
   (1, 0) 0.343836 0.656164;
   (2, 0) 0.831325 0.168675;
   (0, 1) 0.211432 0.788568;
   (1, 1) 0.919862 0.0801378;
   (2, 1) 0.621435 0.378565;
   (0, 2) 0.64749 0.35251;
   (1, 2) 0.0716236 0.928376;
   (2, 2) 0.352576 0.647424;
}
probability (n_5 | n_0) {
   (0) 0.476194 0.523806;
   (1) 0.886004 0.113996;
   (2) 0.901163 0.0988367;
}
probability (n_6 | n_7, n_5) {
   (0, 0) 0.0017401 0.99826;
   (1, 0) 0.681768 0.318232;
   (2, 0) 0.958431 0.0415692;
   (0, 1) 0.484422 0.515578;
   (1, 1) 0.651646 0.348354;
   (2, 1) 0.700434 0.299566;
}
probability (n_7 | n_2, n_1) {
   (0, 0) 0.236608 0.601114 0.162278;
   (1, 0) 0.801938 0.000710397 0.197352;
   (0, 1) 0.328888 0.417351 0.253761;
   (1, 1) 0.766909 0.143525 0.0895663;
   (0, 2) 0.507186 0.257527 0.235286;
   (1, 2) 0.277264 0.250562 0.472174;
}
probability (n_8) {
   default 0.334133 0.271267 0.3946;
}
probability (n_9 | n_0) {
   (0) 0.357256 0.642744;
   (1) 0.359651 0.640349;
   (2) 0.997653 0.00234659;
}

