network "unnamedBN" {
// written by aGrUM 0.20.2.9
}

variable n_0 {
   type discrete[3] {0, 1, 2};
}

variable n_1 {
   type discrete[2] {0, 1};
}

variable n_2 {
   type discrete[2] {0, 1};
}

variable n_3 {
   type discrete[3] {0, 1, 2};
}

variable n_4 {
   type discrete[3] {0, 1, 2};
}

variable n_5 {
   type discrete[3] {0, 1, 2};
}

variable n_6 {
   type discrete[2] {0, 1};
}

variable n_7 {
   type discrete[2] {0, 1};
}

variable n_8 {
   type discrete[2] {0, 1};
}

variable n_9 {
   type discrete[3] {0, 1, 2};
}

probability (n_0 | n_3) {
   (0) 0.710281 0.275902 0.0138171;
   (1) 0.0751292 0.324823 0.600048;
   (2) 0.128387 0.393398 0.478215;
}
probability (n_1 | n_7, n_5, n_2) {
   (0, 0, 0) 0.557155 0.442845;
   (1, 0, 0) 0.634658 0.365342;
   (0, 1, 0) 0.517441 0.482559;
   (1, 1, 0) 0.520191 0.479809;
   (0, 2, 0) 0.789106 0.210894;
   (1, 2, 0) 0.110283 0.889717;
   (0, 0, 1) 0.746761 0.253239;
   (1, 0, 1) 0.165746 0.834254;
   (0, 1, 1) 0.982564 0.0174361;
   (1, 1, 1) 0.949892 0.0501084;
   (0, 2, 1) 0.933473 0.0665266;
   (1, 2, 1) 0.993709 0.00629102;
}
probability (n_2) {
   default 0.104893 0.895107;
}
probability (n_3 | n_6) {
   (0) 0.20788 0.412664 0.379456;
   (1) 0.129868 0.5088 0.361332;
}
probability (n_4 | n_3, n_6, n_8) {
   (0, 0, 0) 0.464717 0.454438 0.080845;
   (1, 0, 0) 0.43851 0.310306 0.251184;
   (2, 0, 0) 0.00228292 0.74057 0.257147;
   (0, 1, 0) 0.161124 0.771755 0.067121;
   (1, 1, 0) 0.215337 0.369634 0.415029;
   (2, 1, 0) 0.0417345 0.463402 0.494864;
   (0, 0, 1) 0.0798159 0.365083 0.555101;
   (1, 0, 1) 0.301003 0.26446 0.434537;
   (2, 0, 1) 0.0893618 0.513933 0.396706;
   (0, 1, 1) 0.571796 0.102694 0.325509;
   (1, 1, 1) 0.300163 0.513946 0.185892;
   (2, 1, 1) 0.553763 0.0956775 0.350559;
}
probability (n_5 | n_7, n_3) {
   (0, 0) 0.770516 0.121959 0.107525;
   (1, 0) 0.0263717 0.263114 0.710515;
   (0, 1) 0.0698526 0.627653 0.302494;
   (1, 1) 0.32936 0.276166 0.394474;
   (0, 2) 0.294511 0.436626 0.268864;
   (1, 2) 0.448675 0.541552 0.00977314;
}
probability (n_6) {
   default 0.232825 0.767175;
}
probability (n_7 | n_6) {
   (0) 0.515963 0.484037;
   (1) 0.77877 0.22123;
}
probability (n_8 | n_3) {
   (0) 0.794983 0.205017;
   (1) 0.145144 0.854856;
   (2) 0.759478 0.240522;
}
probability (n_9 | n_5, n_4, n_7) {
   (0, 0, 0) 0.222178 0.481315 0.296507;
   (1, 0, 0) 0.239168 0.390071 0.370762;
   (2, 0, 0) 0.0401476 0.714789 0.245064;
   (0, 1, 0) 0.187418 0.299432 0.51315;
   (1, 1, 0) 0.281066 0.0721289 0.646805;
   (2, 1, 0) 0.611484 0.30282 0.0856956;
   (0, 2, 0) 0.397541 0.277154 0.325305;
   (1, 2, 0) 0.531192 0.325023 0.143785;
   (2, 2, 0) 0.420232 0.429399 0.150369;
   (0, 0, 1) 0.0826357 0.749932 0.167432;
   (1, 0, 1) 0.279048 0.0794112 0.641541;
   (2, 0, 1) 0.431819 0.292279 0.275902;
   (0, 1, 1) 0.332358 0.483927 0.183714;
   (1, 1, 1) 0.276212 0.391832 0.331956;
   (2, 1, 1) 0.350096 0.12822 0.521683;
   (0, 2, 1) 0.540992 0.0217204 0.437288;
   (1, 2, 1) 0.198082 0.40707 0.394848;
   (2, 2, 1) 0.0695908 0.636637 0.293772;
}

