network "unnamedBN" {
// written by aGrUM 0.20.2.9
}

variable n_0 {
   type discrete[2] {0, 1};
}

variable n_1 {
   type discrete[2] {0, 1};
}

variable n_2 {
   type discrete[2] {0, 1};
}

variable n_3 {
   type discrete[2] {0, 1};
}

variable n_4 {
   type discrete[3] {0, 1, 2};
}

variable n_5 {
   type discrete[3] {0, 1, 2};
}

variable n_6 {
   type discrete[3] {0, 1, 2};
}

variable n_7 {
   type discrete[2] {0, 1};
}

variable n_8 {
   type discrete[3] {0, 1, 2};
}

variable n_9 {
   type discrete[2] {0, 1};
}

variable n_10 {
   type discrete[2] {0, 1};
}

variable n_11 {
   type discrete[2] {0, 1};
}

variable n_12 {
   type discrete[2] {0, 1};
}

variable n_13 {
   type discrete[2] {0, 1};
}

variable n_14 {
   type discrete[3] {0, 1, 2};
}

variable n_15 {
   type discrete[3] {0, 1, 2};
}

variable n_16 {
   type discrete[2] {0, 1};
}

variable n_17 {
   type discrete[2] {0, 1};
}

variable n_18 {
   type discrete[2] {0, 1};
}

variable n_19 {
   type discrete[2] {0, 1};
}

variable n_20 {
   type discrete[3] {0, 1, 2};
}

variable n_21 {
   type discrete[2] {0, 1};
}

variable n_22 {
   type discrete[3] {0, 1, 2};
}

variable n_23 {
   type discrete[2] {0, 1};
}

variable n_24 {
   type discrete[2] {0, 1};
}

variable n_25 {
   type discrete[2] {0, 1};
}

variable n_26 {
   type discrete[3] {0, 1, 2};
}

variable n_27 {
   type discrete[2] {0, 1};
}

variable n_28 {
   type discrete[3] {0, 1, 2};
}

variable n_29 {
   type discrete[2] {0, 1};
}

variable n_30 {
   type discrete[3] {0, 1, 2};
}

variable n_31 {
   type discrete[2] {0, 1};
}

variable n_32 {
   type discrete[2] {0, 1};
}

variable n_33 {
   type discrete[2] {0, 1};
}

variable n_34 {
   type discrete[2] {0, 1};
}

variable n_35 {
   type discrete[2] {0, 1};
}

variable n_36 {
   type discrete[3] {0, 1, 2};
}

variable n_37 {
   type discrete[3] {0, 1, 2};
}

variable n_38 {
   type discrete[3] {0, 1, 2};
}

variable n_39 {
   type discrete[2] {0, 1};
}

variable n_40 {
   type discrete[3] {0, 1, 2};
}

variable n_41 {
   type discrete[3] {0, 1, 2};
}

variable n_42 {
   type discrete[3] {0, 1, 2};
}

variable n_43 {
   type discrete[2] {0, 1};
}

variable n_44 {
   type discrete[2] {0, 1};
}

variable n_45 {
   type discrete[3] {0, 1, 2};
}

variable n_46 {
   type discrete[2] {0, 1};
}

variable n_47 {
   type discrete[3] {0, 1, 2};
}

variable n_48 {
   type discrete[3] {0, 1, 2};
}

variable n_49 {
   type discrete[3] {0, 1, 2};
}

variable n_50 {
   type discrete[2] {0, 1};
}

variable n_51 {
   type discrete[2] {0, 1};
}

variable n_52 {
   type discrete[3] {0, 1, 2};
}

variable n_53 {
   type discrete[2] {0, 1};
}

variable n_54 {
   type discrete[2] {0, 1};
}

variable n_55 {
   type discrete[2] {0, 1};
}

variable n_56 {
   type discrete[2] {0, 1};
}

variable n_57 {
   type discrete[2] {0, 1};
}

variable n_58 {
   type discrete[3] {0, 1, 2};
}

variable n_59 {
   type discrete[2] {0, 1};
}

variable n_60 {
   type discrete[2] {0, 1};
}

variable n_61 {
   type discrete[2] {0, 1};
}

variable n_62 {
   type discrete[3] {0, 1, 2};
}

variable n_63 {
   type discrete[3] {0, 1, 2};
}

variable n_64 {
   type discrete[2] {0, 1};
}

variable n_65 {
   type discrete[3] {0, 1, 2};
}

variable n_66 {
   type discrete[2] {0, 1};
}

variable n_67 {
   type discrete[2] {0, 1};
}

variable n_68 {
   type discrete[2] {0, 1};
}

variable n_69 {
   type discrete[2] {0, 1};
}

variable n_70 {
   type discrete[2] {0, 1};
}

variable n_71 {
   type discrete[3] {0, 1, 2};
}

variable n_72 {
   type discrete[2] {0, 1};
}

variable n_73 {
   type discrete[3] {0, 1, 2};
}

variable n_74 {
   type discrete[3] {0, 1, 2};
}

variable n_75 {
   type discrete[2] {0, 1};
}

variable n_76 {
   type discrete[2] {0, 1};
}

variable n_77 {
   type discrete[2] {0, 1};
}

variable n_78 {
   type discrete[2] {0, 1};
}

variable n_79 {
   type discrete[2] {0, 1};
}

variable n_80 {
   type discrete[2] {0, 1};
}

variable n_81 {
   type discrete[3] {0, 1, 2};
}

variable n_82 {
   type discrete[2] {0, 1};
}

variable n_83 {
   type discrete[2] {0, 1};
}

variable n_84 {
   type discrete[2] {0, 1};
}

variable n_85 {
   type discrete[2] {0, 1};
}

variable n_86 {
   type discrete[2] {0, 1};
}

variable n_87 {
   type discrete[2] {0, 1};
}

variable n_88 {
   type discrete[3] {0, 1, 2};
}

variable n_89 {
   type discrete[3] {0, 1, 2};
}

variable n_90 {
   type discrete[2] {0, 1};
}

variable n_91 {
   type discrete[3] {0, 1, 2};
}

variable n_92 {
   type discrete[2] {0, 1};
}

variable n_93 {
   type discrete[3] {0, 1, 2};
}

variable n_94 {
   type discrete[3] {0, 1, 2};
}

variable n_95 {
   type discrete[3] {0, 1, 2};
}

variable n_96 {
   type discrete[3] {0, 1, 2};
}

variable n_97 {
   type discrete[3] {0, 1, 2};
}

variable n_98 {
   type discrete[3] {0, 1, 2};
}

variable n_99 {
   type discrete[2] {0, 1};
}

probability (n_0 | n_95, n_80) {
   (0, 0) 0.839197 0.160803;
   (1, 0) 0.613821 0.386179;
   (2, 0) 0.440335 0.559665;
   (0, 1) 0.460201 0.539799;
   (1, 1) 0.406411 0.593589;
   (2, 1) 0.635254 0.364746;
}
probability (n_1 | n_0, n_64) {
   (0, 0) 0.461893 0.538107;
   (1, 0) 0.397348 0.602652;
   (0, 1) 0.894409 0.105591;
   (1, 1) 0.934966 0.065034;
}
probability (n_2 | n_1, n_38, n_45, n_10, n_65) {
   (0, 0, 0, 0, 0) 0.980299 0.0197008;
   (1, 0, 0, 0, 0) 0.199159 0.800841;
   (0, 1, 0, 0, 0) 0.333002 0.666998;
   (1, 1, 0, 0, 0) 0.688268 0.311732;
   (0, 2, 0, 0, 0) 0.652136 0.347864;
   (1, 2, 0, 0, 0) 0.516691 0.483309;
   (0, 0, 1, 0, 0) 0.50784 0.49216;
   (1, 0, 1, 0, 0) 0.414196 0.585804;
   (0, 1, 1, 0, 0) 0.430056 0.569944;
   (1, 1, 1, 0, 0) 0.551212 0.448788;
   (0, 2, 1, 0, 0) 0.475012 0.524988;
   (1, 2, 1, 0, 0) 0.935005 0.0649953;
   (0, 0, 2, 0, 0) 0.188351 0.811649;
   (1, 0, 2, 0, 0) 0.666275 0.333725;
   (0, 1, 2, 0, 0) 0.813657 0.186343;
   (1, 1, 2, 0, 0) 0.311885 0.688115;
   (0, 2, 2, 0, 0) 0.343587 0.656413;
   (1, 2, 2, 0, 0) 0.252247 0.747753;
   (0, 0, 0, 1, 0) 0.926483 0.0735169;
   (1, 0, 0, 1, 0) 0.519154 0.480846;
   (0, 1, 0, 1, 0) 0.583251 0.416749;
   (1, 1, 0, 1, 0) 0.671485 0.328515;
   (0, 2, 0, 1, 0) 0.542932 0.457068;
   (1, 2, 0, 1, 0) 0.54874 0.45126;
   (0, 0, 1, 1, 0) 0.822465 0.177535;
   (1, 0, 1, 1, 0) 0.646949 0.353051;
   (0, 1, 1, 1, 0) 0.66381 0.33619;
   (1, 1, 1, 1, 0) 0.815692 0.184308;
   (0, 2, 1, 1, 0) 0.182777 0.817223;
   (1, 2, 1, 1, 0) 0.919448 0.0805519;
   (0, 0, 2, 1, 0) 0.125062 0.874938;
   (1, 0, 2, 1, 0) 0.650452 0.349548;
   (0, 1, 2, 1, 0) 0.57226 0.42774;
   (1, 1, 2, 1, 0) 0.477811 0.522189;
   (0, 2, 2, 1, 0) 0.544303 0.455697;
   (1, 2, 2, 1, 0) 0.679003 0.320997;
   (0, 0, 0, 0, 1) 0.017917 0.982083;
   (1, 0, 0, 0, 1) 0.309049 0.690951;
   (0, 1, 0, 0, 1) 0.697636 0.302364;
   (1, 1, 0, 0, 1) 0.561697 0.438303;
   (0, 2, 0, 0, 1) 0.424098 0.575902;
   (1, 2, 0, 0, 1) 0.147814 0.852186;
   (0, 0, 1, 0, 1) 0.200216 0.799784;
   (1, 0, 1, 0, 1) 0.620326 0.379674;
   (0, 1, 1, 0, 1) 0.375684 0.624316;
   (1, 1, 1, 0, 1) 0.390704 0.609296;
   (0, 2, 1, 0, 1) 0.298654 0.701346;
   (1, 2, 1, 0, 1) 0.7588 0.2412;
   (0, 0, 2, 0, 1) 0.479338 0.520662;
   (1, 0, 2, 0, 1) 0.221481 0.778519;
   (0, 1, 2, 0, 1) 0.248818 0.751182;
   (1, 1, 2, 0, 1) 0.704726 0.295274;
   (0, 2, 2, 0, 1) 0.934077 0.0659235;
   (1, 2, 2, 0, 1) 0.389949 0.610051;
   (0, 0, 0, 1, 1) 0.277957 0.722043;
   (1, 0, 0, 1, 1) 0.518521 0.481479;
   (0, 1, 0, 1, 1) 0.989741 0.0102587;
   (1, 1, 0, 1, 1) 0.289737 0.710263;
   (0, 2, 0, 1, 1) 0.417671 0.582329;
   (1, 2, 0, 1, 1) 0.446267 0.553733;
   (0, 0, 1, 1, 1) 0.597485 0.402515;
   (1, 0, 1, 1, 1) 0.829225 0.170775;
   (0, 1, 1, 1, 1) 0.39408 0.60592;
   (1, 1, 1, 1, 1) 0.306979 0.693021;
   (0, 2, 1, 1, 1) 0.331741 0.668259;
   (1, 2, 1, 1, 1) 0.371952 0.628048;
   (0, 0, 2, 1, 1) 0.209099 0.790901;
   (1, 0, 2, 1, 1) 0.46197 0.53803;
   (0, 1, 2, 1, 1) 0.488162 0.511838;
   (1, 1, 2, 1, 1) 0.44511 0.55489;
   (0, 2, 2, 1, 1) 0.843507 0.156493;
   (1, 2, 2, 1, 1) 0.231947 0.768053;
   (0, 0, 0, 0, 2) 0.26989 0.73011;
   (1, 0, 0, 0, 2) 0.290504 0.709496;
   (0, 1, 0, 0, 2) 0.449554 0.550446;
   (1, 1, 0, 0, 2) 0.0160842 0.983916;
   (0, 2, 0, 0, 2) 0.00420302 0.995797;
   (1, 2, 0, 0, 2) 0.436696 0.563304;
   (0, 0, 1, 0, 2) 0.354719 0.645281;
   (1, 0, 1, 0, 2) 0.375316 0.624684;
   (0, 1, 1, 0, 2) 0.291383 0.708617;
   (1, 1, 1, 0, 2) 0.251785 0.748215;
   (0, 2, 1, 0, 2) 0.393365 0.606635;
   (1, 2, 1, 0, 2) 0.423501 0.576499;
   (0, 0, 2, 0, 2) 0.58616 0.41384;
   (1, 0, 2, 0, 2) 0.499956 0.500044;
   (0, 1, 2, 0, 2) 0.976712 0.0232877;
   (1, 1, 2, 0, 2) 0.290178 0.709822;
   (0, 2, 2, 0, 2) 0.403877 0.596123;
   (1, 2, 2, 0, 2) 0.479789 0.520211;
   (0, 0, 0, 1, 2) 0.214966 0.785034;
   (1, 0, 0, 1, 2) 0.226327 0.773673;
   (0, 1, 0, 1, 2) 0.605131 0.394869;
   (1, 1, 0, 1, 2) 0.96089 0.0391103;
   (0, 2, 0, 1, 2) 0.717724 0.282276;
   (1, 2, 0, 1, 2) 0.611491 0.388509;
   (0, 0, 1, 1, 2) 0.464127 0.535873;
   (1, 0, 1, 1, 2) 0.726743 0.273257;
   (0, 1, 1, 1, 2) 0.683738 0.316262;
   (1, 1, 1, 1, 2) 0.556304 0.443696;
   (0, 2, 1, 1, 2) 0.0271542 0.972846;
   (1, 2, 1, 1, 2) 0.40714 0.59286;
   (0, 0, 2, 1, 2) 0.441995 0.558005;
   (1, 0, 2, 1, 2) 0.744807 0.255193;
   (0, 1, 2, 1, 2) 0.523075 0.476925;
   (1, 1, 2, 1, 2) 0.16248 0.83752;
   (0, 2, 2, 1, 2) 0.663441 0.336559;
   (1, 2, 2, 1, 2) 0.642633 0.357367;
}
probability (n_3 | n_2, n_27) {
   (0, 0) 0.434079 0.565921;
   (1, 0) 0.141932 0.858068;
   (0, 1) 0.519679 0.480321;
   (1, 1) 0.277317 0.722683;
}
probability (n_4 | n_69, n_68, n_82) {
   (0, 0, 0) 0.722657 0.234337 0.0430064;
   (1, 0, 0) 0.255516 0.29057 0.453914;
   (0, 1, 0) 0.163373 0.392331 0.444296;
   (1, 1, 0) 0.464394 0.261196 0.27441;
   (0, 0, 1) 0.429463 0.16295 0.407587;
   (1, 0, 1) 0.223121 0.390807 0.386073;
   (0, 1, 1) 0.424341 0.392703 0.182956;
   (1, 1, 1) 0.328128 0.271013 0.400859;
}
probability (n_5 | n_9) {
   (0) 0.285438 0.367469 0.347093;
   (1) 0.238667 0.285542 0.475791;
}
probability (n_6 | n_98, n_75, n_16) {
   (0, 0, 0) 0.241054 0.469584 0.289362;
   (1, 0, 0) 0.106697 0.457344 0.435959;
   (2, 0, 0) 0.222163 0.140193 0.637645;
   (0, 1, 0) 0.320488 0.346804 0.332708;
   (1, 1, 0) 0.270397 0.57206 0.157543;
   (2, 1, 0) 0.218994 0.48845 0.292556;
   (0, 0, 1) 0.0707447 0.515941 0.413314;
   (1, 0, 1) 0.291161 0.479234 0.229605;
   (2, 0, 1) 0.162277 0.0943692 0.743354;
   (0, 1, 1) 0.437034 0.290631 0.272335;
   (1, 1, 1) 0.345528 0.305891 0.348581;
   (2, 1, 1) 0.017362 0.569356 0.413282;
}
probability (n_7 | n_4, n_26) {
   (0, 0) 0.899236 0.100764;
   (1, 0) 0.762326 0.237674;
   (2, 0) 0.572722 0.427278;
   (0, 1) 0.305838 0.694162;
   (1, 1) 0.576123 0.423877;
   (2, 1) 0.365838 0.634162;
   (0, 2) 0.484875 0.515125;
   (1, 2) 0.745823 0.254177;
   (2, 2) 0.818484 0.181516;
}
probability (n_8 | n_3) {
   (0) 0.512951 0.140504 0.346545;
   (1) 0.333298 0.0252745 0.641428;
}
probability (n_9 | n_8, n_80) {
   (0, 0) 0.0494254 0.950575;
   (1, 0) 0.430278 0.569722;
   (2, 0) 0.593588 0.406412;
   (0, 1) 0.444657 0.555343;
   (1, 1) 0.662216 0.337784;
   (2, 1) 0.592273 0.407727;
}
probability (n_10 | n_83) {
   (0) 0.405222 0.594778;
   (1) 0.64156 0.35844;
}
probability (n_11 | n_2, n_93) {
   (0, 0) 0.509769 0.490231;
   (1, 0) 0.989961 0.0100388;
   (0, 1) 0.0193965 0.980603;
   (1, 1) 0.19165 0.80835;
   (0, 2) 0.211182 0.788818;
   (1, 2) 0.117926 0.882074;
}
probability (n_12) {
   default 0.645264 0.354736;
}
probability (n_13 | n_14) {
   (0) 0.652936 0.347064;
   (1) 0.883458 0.116542;
   (2) 0.134654 0.865346;
}
probability (n_14 | n_60) {
   (0) 0.35629 0.343023 0.300687;
   (1) 0.400655 0.0795802 0.519764;
}
probability (n_15 | n_16) {
   (0) 0.139252 0.164469 0.696279;
   (1) 0.126179 0.69052 0.183301;
}
probability (n_16 | n_17) {
   (0) 0.892682 0.107318;
   (1) 0.246824 0.753176;
}
probability (n_17 | n_76) {
   (0) 0.118617 0.881383;
   (1) 0.683833 0.316167;
}
probability (n_18 | n_12, n_82) {
   (0, 0) 0.174366 0.825634;
   (1, 0) 0.705186 0.294814;
   (0, 1) 0.766685 0.233315;
   (1, 1) 0.444417 0.555583;
}
probability (n_19 | n_72) {
   (0) 0.330925 0.669075;
   (1) 0.854861 0.145139;
}
probability (n_20 | n_87) {
   (0) 0.343473 0.194178 0.462348;
   (1) 0.248554 0.40773 0.343716;
}
probability (n_21 | n_20, n_32) {
   (0, 0) 0.542374 0.457626;
   (1, 0) 0.671562 0.328438;
   (2, 0) 0.643284 0.356716;
   (0, 1) 0.333535 0.666465;
   (1, 1) 0.0490536 0.950946;
   (2, 1) 0.410865 0.589135;
}
probability (n_22 | n_2, n_63, n_52, n_1) {
   (0, 0, 0, 0) 0.537115 0.352395 0.11049;
   (1, 0, 0, 0) 0.245289 0.370221 0.38449;
   (0, 1, 0, 0) 0.443587 0.228663 0.32775;
   (1, 1, 0, 0) 0.30188 0.251042 0.447078;
   (0, 2, 0, 0) 0.189191 0.452861 0.357948;
   (1, 2, 0, 0) 0.713543 0.0426605 0.243796;
   (0, 0, 1, 0) 0.244536 0.350393 0.40507;
   (1, 0, 1, 0) 0.318681 0.136884 0.544435;
   (0, 1, 1, 0) 0.390098 0.314111 0.295791;
   (1, 1, 1, 0) 0.813533 0.186272 0.000194604;
   (0, 2, 1, 0) 0.20743 0.518423 0.274147;
   (1, 2, 1, 0) 0.383442 0.370136 0.246422;
   (0, 0, 2, 0) 0.28623 0.206136 0.507633;
   (1, 0, 2, 0) 0.438388 0.186484 0.375128;
   (0, 1, 2, 0) 0.141348 0.541484 0.317168;
   (1, 1, 2, 0) 0.403402 0.303261 0.293336;
   (0, 2, 2, 0) 0.432411 0.483634 0.0839545;
   (1, 2, 2, 0) 0.521424 0.240193 0.238383;
   (0, 0, 0, 1) 0.239822 0.0907502 0.669428;
   (1, 0, 0, 1) 0.459479 0.462188 0.078333;
   (0, 1, 0, 1) 0.6576 0.244075 0.098325;
   (1, 1, 0, 1) 0.230646 0.440754 0.3286;
   (0, 2, 0, 1) 0.386857 0.155683 0.45746;
   (1, 2, 0, 1) 0.44301 0.249003 0.307986;
   (0, 0, 1, 1) 0.444082 0.505009 0.0509086;
   (1, 0, 1, 1) 0.58861 0.0580626 0.353327;
   (0, 1, 1, 1) 0.146888 0.578234 0.274878;
   (1, 1, 1, 1) 0.221205 0.355137 0.423659;
   (0, 2, 1, 1) 0.277274 0.378783 0.343943;
   (1, 2, 1, 1) 0.278151 0.377956 0.343893;
   (0, 0, 2, 1) 0.432418 0.455764 0.111818;
   (1, 0, 2, 1) 0.0165562 0.731359 0.252085;
   (0, 1, 2, 1) 0.498976 0.160547 0.340477;
   (1, 1, 2, 1) 0.294961 0.354477 0.350562;
   (0, 2, 2, 1) 0.128201 0.394709 0.477089;
   (1, 2, 2, 1) 0.229804 0.103451 0.666745;
}
probability (n_23 | n_22) {
   (0) 0.676227 0.323773;
   (1) 0.83264 0.16736;
   (2) 0.421731 0.578269;
}
probability (n_24 | n_22, n_25, n_15) {
   (0, 0, 0) 0.660817 0.339183;
   (1, 0, 0) 0.563486 0.436514;
   (2, 0, 0) 0.125919 0.874081;
   (0, 1, 0) 0.379055 0.620945;
   (1, 1, 0) 0.496902 0.503098;
   (2, 1, 0) 0.0249606 0.975039;
   (0, 0, 1) 0.582411 0.417589;
   (1, 0, 1) 0.497992 0.502008;
   (2, 0, 1) 0.603967 0.396033;
   (0, 1, 1) 0.344738 0.655262;
   (1, 1, 1) 0.477477 0.522523;
   (2, 1, 1) 0.514136 0.485864;
   (0, 0, 2) 0.825286 0.174714;
   (1, 0, 2) 0.794564 0.205436;
   (2, 0, 2) 0.321132 0.678868;
   (0, 1, 2) 0.66219 0.33781;
   (1, 1, 2) 0.880496 0.119504;
   (2, 1, 2) 0.895048 0.104952;
}
probability (n_25) {
   default 0.0851917 0.914808;
}
probability (n_26) {
   default 0.076523 0.70315 0.220327;
}
probability (n_27 | n_22, n_36, n_32) {
   (0, 0, 0) 0.575574 0.424426;
   (1, 0, 0) 0.229906 0.770094;
   (2, 0, 0) 0.42914 0.57086;
   (0, 1, 0) 0.173868 0.826132;
   (1, 1, 0) 0.601122 0.398878;
   (2, 1, 0) 0.343778 0.656222;
   (0, 2, 0) 0.184624 0.815376;
   (1, 2, 0) 0.48164 0.51836;
   (2, 2, 0) 0.521935 0.478065;
   (0, 0, 1) 0.810203 0.189797;
   (1, 0, 1) 0.507829 0.492171;
   (2, 0, 1) 0.114391 0.885609;
   (0, 1, 1) 0.720979 0.279021;
   (1, 1, 1) 0.480503 0.519497;
   (2, 1, 1) 0.282964 0.717036;
   (0, 2, 1) 0.381654 0.618346;
   (1, 2, 1) 0.634265 0.365735;
   (2, 2, 1) 0.359804 0.640196;
}
probability (n_28 | n_31, n_27, n_84) {
   (0, 0, 0) 0.262045 0.588458 0.149497;
   (1, 0, 0) 0.0460916 0.715619 0.238289;
   (0, 1, 0) 0.700491 0.17727 0.122239;
   (1, 1, 0) 0.413461 0.243094 0.343445;
   (0, 0, 1) 0.292152 0.0831189 0.624729;
   (1, 0, 1) 0.0659265 0.43289 0.501184;
   (0, 1, 1) 0.654774 0.239231 0.105995;
   (1, 1, 1) 0.526931 0.20003 0.273039;
}
probability (n_29 | n_28) {
   (0) 0.5293 0.4707;
   (1) 0.633356 0.366644;
   (2) 0.549562 0.450438;
}
probability (n_30 | n_29, n_75) {
   (0, 0) 0.570328 0.15364 0.276032;
   (1, 0) 0.589999 0.182463 0.227538;
   (0, 1) 0.16524 0.515551 0.31921;
   (1, 1) 0.174603 0.320621 0.504776;
}
probability (n_31 | n_6, n_69) {
   (0, 0) 0.70571 0.29429;
   (1, 0) 0.0927989 0.907201;
   (2, 0) 0.132132 0.867868;
   (0, 1) 0.866005 0.133995;
   (1, 1) 0.216694 0.783306;
   (2, 1) 0.0325003 0.9675;
}
probability (n_32 | n_13) {
   (0) 0.395915 0.604085;
   (1) 0.389316 0.610684;
}
probability (n_33 | n_96) {
   (0) 0.401893 0.598107;
   (1) 0.931389 0.0686105;
   (2) 0.389861 0.610139;
}
probability (n_34 | n_92, n_28) {
   (0, 0) 0.550061 0.449939;
   (1, 0) 0.395332 0.604668;
   (0, 1) 0.477546 0.522454;
   (1, 1) 0.741043 0.258957;
   (0, 2) 0.507974 0.492026;
   (1, 2) 0.229607 0.770393;
}
probability (n_35 | n_27, n_41) {
   (0, 0) 0.56949 0.43051;
   (1, 0) 0.683157 0.316843;
   (0, 1) 0.350543 0.649457;
   (1, 1) 0.34806 0.65194;
   (0, 2) 0.406758 0.593242;
   (1, 2) 0.20243 0.79757;
}
probability (n_36 | n_26, n_85) {
   (0, 0) 0.015331 0.267018 0.717651;
   (1, 0) 0.318484 0.312151 0.369365;
   (2, 0) 0.224806 0.457289 0.317905;
   (0, 1) 0.184116 0.332523 0.483361;
   (1, 1) 0.890986 0.104902 0.00411129;
   (2, 1) 0.37285 0.481153 0.145996;
}
probability (n_37 | n_27, n_53) {
   (0, 0) 0.245998 0.160925 0.593077;
   (1, 0) 0.645071 0.333132 0.0217963;
   (0, 1) 0.36854 0.360591 0.270869;
   (1, 1) 0.151097 0.31167 0.537233;
}
probability (n_38 | n_56) {
   (0) 0.650116 0.31286 0.0370236;
   (1) 0.401126 0.391017 0.207857;
}
probability (n_39 | n_38) {
   (0) 0.226165 0.773835;
   (1) 0.595958 0.404042;
   (2) 0.465628 0.534372;
}
probability (n_40 | n_3) {
   (0) 0.334716 0.224629 0.440656;
   (1) 0.27466 0.61328 0.112059;
}
probability (n_41 | n_38) {
   (0) 0.300803 0.541228 0.157968;
   (1) 0.0657309 0.49974 0.434529;
   (2) 0.125854 0.4937 0.380446;
}
probability (n_42 | n_41, n_43) {
   (0, 0) 0.297868 0.332024 0.370108;
   (1, 0) 0.292252 0.507888 0.19986;
   (2, 0) 0.44451 0.494484 0.0610063;
   (0, 1) 0.519052 0.45704 0.0239075;
   (1, 1) 0.508034 0.217918 0.274048;
   (2, 1) 0.450028 0.285315 0.264657;
}
probability (n_43 | n_40) {
   (0) 0.294448 0.705552;
   (1) 0.37696 0.62304;
   (2) 0.609553 0.390447;
}
probability (n_44 | n_41) {
   (0) 0.576143 0.423857;
   (1) 0.213394 0.786606;
   (2) 0.520028 0.479972;
}
probability (n_45) {
   default 0.538696 0.225546 0.235758;
}
probability (n_46 | n_25, n_80, n_26) {
   (0, 0, 0) 0.507531 0.492469;
   (1, 0, 0) 0.629974 0.370026;
   (0, 1, 0) 0.247479 0.752521;
   (1, 1, 0) 0.0705762 0.929424;
   (0, 0, 1) 0.657833 0.342167;
   (1, 0, 1) 0.557672 0.442328;
   (0, 1, 1) 0.444195 0.555805;
   (1, 1, 1) 0.969676 0.0303243;
   (0, 0, 2) 0.971721 0.0282789;
   (1, 0, 2) 0.401997 0.598003;
   (0, 1, 2) 0.44906 0.55094;
   (1, 1, 2) 0.701221 0.298779;
}
probability (n_47 | n_48, n_24, n_3) {
   (0, 0, 0) 0.314144 0.338758 0.347098;
   (1, 0, 0) 0.304708 0.518682 0.17661;
   (2, 0, 0) 0.589445 0.389006 0.0215493;
   (0, 1, 0) 0.536845 0.352858 0.110297;
   (1, 1, 0) 0.322314 0.533231 0.144455;
   (2, 1, 0) 0.284642 0.359552 0.355806;
   (0, 0, 1) 0.164577 0.345622 0.489801;
   (1, 0, 1) 0.26748 0.332229 0.40029;
   (2, 0, 1) 0.144095 0.361959 0.493947;
   (0, 1, 1) 0.705439 0.205927 0.0886348;
   (1, 1, 1) 0.479565 0.0066999 0.513735;
   (2, 1, 1) 0.37758 0.243563 0.378857;
}
probability (n_48 | n_50) {
   (0) 0.0491006 0.496424 0.454475;
   (1) 0.0523266 0.23681 0.710864;
}
probability (n_49) {
   default 0.158318 0.444989 0.396693;
}
probability (n_50) {
   default 0.545033 0.454967;
}
probability (n_51 | n_13, n_8) {
   (0, 0) 0.654152 0.345848;
   (1, 0) 0.409937 0.590063;
   (0, 1) 0.461503 0.538497;
   (1, 1) 0.517026 0.482974;
   (0, 2) 0.632612 0.367388;
   (1, 2) 0.50176 0.49824;
}
probability (n_52 | n_2, n_56) {
   (0, 0) 0.360472 0.370632 0.268896;
   (1, 0) 0.422124 0.399074 0.178802;
   (0, 1) 0.233371 0.44007 0.326559;
   (1, 1) 0.336218 0.438443 0.225339;
}
probability (n_53 | n_27) {
   (0) 0.543252 0.456748;
   (1) 0.494912 0.505088;
}
probability (n_54 | n_1) {
   (0) 0.76244 0.23756;
   (1) 0.0864566 0.913543;
}
probability (n_55 | n_54, n_5) {
   (0, 0) 0.403168 0.596832;
   (1, 0) 0.39691 0.60309;
   (0, 1) 0.312182 0.687818;
   (1, 1) 0.814291 0.185709;
   (0, 2) 0.206931 0.793069;
   (1, 2) 0.493049 0.506951;
}
probability (n_56) {
   default 0.439064 0.560936;
}
probability (n_57) {
   default 0.898239 0.101761;
}
probability (n_58 | n_57, n_59, n_74) {
   (0, 0, 0) 0.339195 0.411315 0.24949;
   (1, 0, 0) 0.119763 0.51497 0.365267;
   (0, 1, 0) 0.418617 0.409744 0.17164;
   (1, 1, 0) 0.215793 0.217578 0.566629;
   (0, 0, 1) 0.292647 0.252476 0.454876;
   (1, 0, 1) 0.394386 0.45801 0.147605;
   (0, 1, 1) 0.413441 0.114805 0.471754;
   (1, 1, 1) 0.584411 0.360131 0.0554574;
   (0, 0, 2) 0.16949 0.199175 0.631335;
   (1, 0, 2) 0.303521 0.374475 0.322004;
   (0, 1, 2) 0.38267 0.292305 0.325025;
   (1, 1, 2) 0.23438 0.609347 0.156274;
}
probability (n_59 | n_2) {
   (0) 0.741982 0.258018;
   (1) 0.446428 0.553572;
}
probability (n_60 | n_61) {
   (0) 0.993376 0.00662438;
   (1) 0.400374 0.599626;
}
probability (n_61) {
   default 0.574508 0.425492;
}
probability (n_62) {
   default 0.454412 0.191506 0.354082;
}
probability (n_63 | n_1, n_39, n_81, n_49) {
   (0, 0, 0, 0) 0.345576 0.340617 0.313807;
   (1, 0, 0, 0) 0.132837 0.548397 0.318766;
   (0, 1, 0, 0) 0.382694 0.2066 0.410706;
   (1, 1, 0, 0) 0.345823 0.0628171 0.59136;
   (0, 0, 1, 0) 0.377416 0.25958 0.363004;
   (1, 0, 1, 0) 0.0371327 0.173198 0.789669;
   (0, 1, 1, 0) 0.394567 0.241428 0.364005;
   (1, 1, 1, 0) 0.278416 0.423672 0.297912;
   (0, 0, 2, 0) 0.208916 0.766346 0.0247376;
   (1, 0, 2, 0) 0.349414 0.416822 0.233764;
   (0, 1, 2, 0) 0.0752337 0.133488 0.791278;
   (1, 1, 2, 0) 0.32167 0.212349 0.465982;
   (0, 0, 0, 1) 0.120563 0.789065 0.0903721;
   (1, 0, 0, 1) 0.377046 0.555405 0.0675494;
   (0, 1, 0, 1) 0.370207 0.337868 0.291926;
   (1, 1, 0, 1) 0.263284 0.356066 0.380649;
   (0, 0, 1, 1) 0.389829 0.386797 0.223374;
   (1, 0, 1, 1) 0.325478 0.24838 0.426142;
   (0, 1, 1, 1) 0.634801 0.283069 0.0821307;
   (1, 1, 1, 1) 0.353713 0.357575 0.288712;
   (0, 0, 2, 1) 0.105172 0.473361 0.421467;
   (1, 0, 2, 1) 0.10174 0.621532 0.276728;
   (0, 1, 2, 1) 0.537882 0.394847 0.0672708;
   (1, 1, 2, 1) 0.0500179 0.748125 0.201857;
   (0, 0, 0, 2) 0.120046 0.152244 0.72771;
   (1, 0, 0, 2) 0.357218 0.346017 0.296766;
   (0, 1, 0, 2) 0.574018 0.26228 0.163702;
   (1, 1, 0, 2) 0.540895 0.27381 0.185295;
   (0, 0, 1, 2) 0.169647 0.268365 0.561988;
   (1, 0, 1, 2) 0.285552 0.189499 0.524948;
   (0, 1, 1, 2) 0.0377947 0.416225 0.545981;
   (1, 1, 1, 2) 0.589441 0.339651 0.0709085;
   (0, 0, 2, 2) 0.104651 0.322374 0.572975;
   (1, 0, 2, 2) 0.304701 0.547041 0.148258;
   (0, 1, 2, 2) 0.277794 0.48028 0.241926;
   (1, 1, 2, 2) 0.297096 0.583856 0.119048;
}
probability (n_64) {
   default 0.917811 0.0821891;
}
probability (n_65 | n_0, n_77) {
   (0, 0) 0.770364 0.131687 0.0979498;
   (1, 0) 0.570436 0.258553 0.171011;
   (0, 1) 0.239662 0.119671 0.640667;
   (1, 1) 0.246099 0.399176 0.354725;
}
probability (n_66) {
   default 0.761943 0.238057;
}
probability (n_67 | n_66, n_95) {
   (0, 0) 0.578661 0.421339;
   (1, 0) 0.36046 0.63954;
   (0, 1) 0.833973 0.166027;
   (1, 1) 0.761327 0.238673;
   (0, 2) 0.507696 0.492304;
   (1, 2) 0.601113 0.398887;
}
probability (n_68 | n_67, n_71, n_72, n_56, n_23) {
   (0, 0, 0, 0, 0) 0.614255 0.385745;
   (1, 0, 0, 0, 0) 0.649928 0.350072;
   (0, 1, 0, 0, 0) 0.849025 0.150975;
   (1, 1, 0, 0, 0) 0.498147 0.501853;
   (0, 2, 0, 0, 0) 0.533023 0.466977;
   (1, 2, 0, 0, 0) 0.805092 0.194908;
   (0, 0, 1, 0, 0) 0.765752 0.234248;
   (1, 0, 1, 0, 0) 0.482868 0.517132;
   (0, 1, 1, 0, 0) 0.660645 0.339355;
   (1, 1, 1, 0, 0) 0.673986 0.326014;
   (0, 2, 1, 0, 0) 0.742324 0.257676;
   (1, 2, 1, 0, 0) 0.145566 0.854434;
   (0, 0, 0, 1, 0) 0.906984 0.093016;
   (1, 0, 0, 1, 0) 0.564293 0.435707;
   (0, 1, 0, 1, 0) 0.273954 0.726046;
   (1, 1, 0, 1, 0) 0.298201 0.701799;
   (0, 2, 0, 1, 0) 0.866522 0.133478;
   (1, 2, 0, 1, 0) 0.246628 0.753372;
   (0, 0, 1, 1, 0) 0.134997 0.865003;
   (1, 0, 1, 1, 0) 0.0474711 0.952529;
   (0, 1, 1, 1, 0) 0.390463 0.609537;
   (1, 1, 1, 1, 0) 0.354825 0.645175;
   (0, 2, 1, 1, 0) 0.547031 0.452969;
   (1, 2, 1, 1, 0) 0.041186 0.958814;
   (0, 0, 0, 0, 1) 0.232625 0.767375;
   (1, 0, 0, 0, 1) 0.706498 0.293502;
   (0, 1, 0, 0, 1) 0.352638 0.647362;
   (1, 1, 0, 0, 1) 0.536366 0.463634;
   (0, 2, 0, 0, 1) 0.390308 0.609692;
   (1, 2, 0, 0, 1) 0.356849 0.643151;
   (0, 0, 1, 0, 1) 0.452428 0.547572;
   (1, 0, 1, 0, 1) 0.436542 0.563458;
   (0, 1, 1, 0, 1) 0.498861 0.501139;
   (1, 1, 1, 0, 1) 0.309144 0.690856;
   (0, 2, 1, 0, 1) 0.523836 0.476164;
   (1, 2, 1, 0, 1) 0.51859 0.48141;
   (0, 0, 0, 1, 1) 0.383472 0.616528;
   (1, 0, 0, 1, 1) 0.727015 0.272985;
   (0, 1, 0, 1, 1) 0.0563265 0.943674;
   (1, 1, 0, 1, 1) 0.061795 0.938205;
   (0, 2, 0, 1, 1) 0.449379 0.550621;
   (1, 2, 0, 1, 1) 0.450672 0.549328;
   (0, 0, 1, 1, 1) 0.746866 0.253134;
   (1, 0, 1, 1, 1) 0.4371 0.5629;
   (0, 1, 1, 1, 1) 0.102949 0.897051;
   (1, 1, 1, 1, 1) 0.201182 0.798818;
   (0, 2, 1, 1, 1) 0.393683 0.606317;
   (1, 2, 1, 1, 1) 0.60681 0.39319;
}
probability (n_69) {
   default 0.955001 0.0449988;
}
probability (n_70 | n_23, n_65, n_79, n_82) {
   (0, 0, 0, 0) 0.671232 0.328768;
   (1, 0, 0, 0) 0.585945 0.414055;
   (0, 1, 0, 0) 0.120682 0.879318;
   (1, 1, 0, 0) 0.575332 0.424668;
   (0, 2, 0, 0) 0.56142 0.43858;
   (1, 2, 0, 0) 0.505161 0.494839;
   (0, 0, 1, 0) 0.962882 0.037118;
   (1, 0, 1, 0) 0.217251 0.782749;
   (0, 1, 1, 0) 0.389706 0.610294;
   (1, 1, 1, 0) 0.408346 0.591654;
   (0, 2, 1, 0) 0.285265 0.714735;
   (1, 2, 1, 0) 0.564206 0.435794;
   (0, 0, 0, 1) 0.742639 0.257361;
   (1, 0, 0, 1) 0.865442 0.134558;
   (0, 1, 0, 1) 0.975123 0.0248768;
   (1, 1, 0, 1) 0.0846678 0.915332;
   (0, 2, 0, 1) 0.249616 0.750384;
   (1, 2, 0, 1) 0.444307 0.555693;
   (0, 0, 1, 1) 0.139409 0.860591;
   (1, 0, 1, 1) 0.441928 0.558072;
   (0, 1, 1, 1) 0.420931 0.579069;
   (1, 1, 1, 1) 0.806767 0.193233;
   (0, 2, 1, 1) 0.398682 0.601318;
   (1, 2, 1, 1) 0.304675 0.695325;
}
probability (n_71 | n_11) {
   (0) 0.377533 0.0210464 0.60142;
   (1) 0.410232 0.359345 0.230423;
}
probability (n_72 | n_42) {
   (0) 0.651544 0.348456;
   (1) 0.508919 0.491081;
   (2) 0.557568 0.442432;
}
probability (n_73 | n_65) {
   (0) 0.656553 0.301882 0.0415658;
   (1) 0.423569 0.443074 0.133358;
   (2) 0.0181573 0.479745 0.502098;
}
probability (n_74 | n_98, n_81) {
   (0, 0) 0.406744 0.445513 0.147743;
   (1, 0) 0.0781892 0.390054 0.531757;
   (2, 0) 0.21409 0.4113 0.37461;
   (0, 1) 0.266244 0.247363 0.486392;
   (1, 1) 0.287546 0.214074 0.49838;
   (2, 1) 0.391387 0.256704 0.351909;
   (0, 2) 0.278033 0.0660034 0.655964;
   (1, 2) 0.384108 0.499216 0.116675;
   (2, 2) 0.28277 0.231488 0.485742;
}
probability (n_75 | n_65) {
   (0) 0.619109 0.380891;
   (1) 0.535143 0.464857;
   (2) 0.215998 0.784002;
}
probability (n_76) {
   default 0.12007 0.87993;
}
probability (n_77) {
   default 0.694536 0.305464;
}
probability (n_78 | n_77) {
   (0) 0.461751 0.538249;
   (1) 0.579545 0.420455;
}
probability (n_79 | n_65, n_35, n_20, n_55) {
   (0, 0, 0, 0) 0.80877 0.19123;
   (1, 0, 0, 0) 0.498967 0.501033;
   (2, 0, 0, 0) 0.713058 0.286942;
   (0, 1, 0, 0) 0.767138 0.232862;
   (1, 1, 0, 0) 0.899068 0.100932;
   (2, 1, 0, 0) 0.554117 0.445883;
   (0, 0, 1, 0) 0.687531 0.312469;
   (1, 0, 1, 0) 0.764264 0.235736;
   (2, 0, 1, 0) 0.376423 0.623577;
   (0, 1, 1, 0) 0.765296 0.234704;
   (1, 1, 1, 0) 0.256624 0.743376;
   (2, 1, 1, 0) 0.717645 0.282355;
   (0, 0, 2, 0) 0.142291 0.857709;
   (1, 0, 2, 0) 0.474428 0.525572;
   (2, 0, 2, 0) 0.384939 0.615061;
   (0, 1, 2, 0) 0.538884 0.461116;
   (1, 1, 2, 0) 0.0421865 0.957813;
   (2, 1, 2, 0) 0.337007 0.662993;
   (0, 0, 0, 1) 0.70172 0.29828;
   (1, 0, 0, 1) 0.74236 0.25764;
   (2, 0, 0, 1) 0.776186 0.223814;
   (0, 1, 0, 1) 0.790303 0.209697;
   (1, 1, 0, 1) 0.712392 0.287608;
   (2, 1, 0, 1) 0.309911 0.690089;
   (0, 0, 1, 1) 0.9176 0.0824001;
   (1, 0, 1, 1) 0.983671 0.0163285;
   (2, 0, 1, 1) 0.528975 0.471025;
   (0, 1, 1, 1) 0.795024 0.204976;
   (1, 1, 1, 1) 0.85973 0.14027;
   (2, 1, 1, 1) 0.786557 0.213443;
   (0, 0, 2, 1) 0.070868 0.929132;
   (1, 0, 2, 1) 0.508714 0.491286;
   (2, 0, 2, 1) 0.469477 0.530523;
   (0, 1, 2, 1) 0.917361 0.0826389;
   (1, 1, 2, 1) 0.526442 0.473558;
   (2, 1, 2, 1) 0.83516 0.16484;
}
probability (n_80 | n_81, n_82) {
   (0, 0) 0.46579 0.53421;
   (1, 0) 0.50898 0.49102;
   (2, 0) 0.0586296 0.94137;
   (0, 1) 0.564477 0.435523;
   (1, 1) 0.390943 0.609057;
   (2, 1) 0.570866 0.429134;
}
probability (n_81 | n_38) {
   (0) 0.508397 0.0727916 0.418811;
   (1) 0.359123 0.176167 0.464711;
   (2) 0.473941 0.196238 0.329821;
}
probability (n_82) {
   default 0.67639 0.32361;
}
probability (n_83 | n_88) {
   (0) 0.808184 0.191816;
   (1) 0.0924088 0.907591;
   (2) 0.554791 0.445209;
}
probability (n_84 | n_83, n_85, n_4) {
   (0, 0, 0) 0.232374 0.767626;
   (1, 0, 0) 0.75847 0.24153;
   (0, 1, 0) 0.21808 0.78192;
   (1, 1, 0) 0.201832 0.798168;
   (0, 0, 1) 0.403564 0.596436;
   (1, 0, 1) 0.371058 0.628942;
   (0, 1, 1) 0.429188 0.570812;
   (1, 1, 1) 0.320263 0.679737;
   (0, 0, 2) 0.407824 0.592176;
   (1, 0, 2) 0.102955 0.897045;
   (0, 1, 2) 0.630787 0.369213;
   (1, 1, 2) 0.668546 0.331454;
}
probability (n_85) {
   default 0.585334 0.414666;
}
probability (n_86 | n_84, n_33) {
   (0, 0) 0.399096 0.600904;
   (1, 0) 0.483329 0.516671;
   (0, 1) 0.421572 0.578428;
   (1, 1) 0.295921 0.704079;
}
probability (n_87 | n_62, n_45) {
   (0, 0) 0.586376 0.413624;
   (1, 0) 0.951437 0.0485627;
   (2, 0) 0.545311 0.454689;
   (0, 1) 0.589741 0.410259;
   (1, 1) 0.569565 0.430435;
   (2, 1) 0.720756 0.279244;
   (0, 2) 0.755523 0.244477;
   (1, 2) 0.0936072 0.906393;
   (2, 2) 0.337525 0.662475;
}
probability (n_88) {
   default 0.295502 0.360166 0.344332;
}
probability (n_89 | n_83, n_66) {
   (0, 0) 0.353457 0.326953 0.319591;
   (1, 0) 0.120092 0.435059 0.444849;
   (0, 1) 0.493517 0.343114 0.163369;
   (1, 1) 0.373415 0.186996 0.439589;
}
probability (n_90 | n_87) {
   (0) 0.481204 0.518796;
   (1) 0.2104 0.7896;
}
probability (n_91 | n_0, n_87) {
   (0, 0) 0.20915 0.501183 0.289666;
   (1, 0) 0.470065 0.194623 0.335313;
   (0, 1) 0.246149 0.318622 0.435228;
   (1, 1) 0.43022 0.411755 0.158025;
}
probability (n_92 | n_91) {
   (0) 0.454306 0.545694;
   (1) 0.710197 0.289803;
   (2) 0.227787 0.772213;
}
probability (n_93 | n_91) {
   (0) 0.177434 0.569123 0.253443;
   (1) 0.0340848 0.408451 0.557464;
   (2) 0.353273 0.401342 0.245384;
}
probability (n_94 | n_0, n_82, n_64) {
   (0, 0, 0) 0.111635 0.235009 0.653356;
   (1, 0, 0) 0.400637 0.317682 0.281681;
   (0, 1, 0) 0.135005 0.332667 0.532328;
   (1, 1, 0) 0.651804 0.00905719 0.339138;
   (0, 0, 1) 0.36236 0.464518 0.173122;
   (1, 0, 1) 0.0291736 0.816147 0.15468;
   (0, 1, 1) 0.202394 0.547873 0.249734;
   (1, 1, 1) 0.411776 0.454189 0.134034;
}
probability (n_95 | n_96) {
   (0) 0.139151 0.478214 0.382635;
   (1) 0.415595 0.311699 0.272707;
   (2) 0.221472 0.380118 0.39841;
}
probability (n_96) {
   default 0.146915 0.472225 0.38086;
}
probability (n_97) {
   default 0.441457 0.515203 0.0433401;
}
probability (n_98 | n_24) {
   (0) 0.432069 0.513052 0.0548792;
   (1) 0.0928604 0.297815 0.609324;
}
probability (n_99 | n_97, n_68, n_23, n_2, n_45) {
   (0, 0, 0, 0, 0) 0.492482 0.507518;
   (1, 0, 0, 0, 0) 0.465894 0.534106;
   (2, 0, 0, 0, 0) 0.852836 0.147164;
   (0, 1, 0, 0, 0) 0.604908 0.395092;
   (1, 1, 0, 0, 0) 0.273116 0.726884;
   (2, 1, 0, 0, 0) 0.977202 0.0227977;
   (0, 0, 1, 0, 0) 0.528974 0.471026;
   (1, 0, 1, 0, 0) 0.577051 0.422949;
   (2, 0, 1, 0, 0) 0.340291 0.659709;
   (0, 1, 1, 0, 0) 0.467394 0.532606;
   (1, 1, 1, 0, 0) 0.169442 0.830558;
   (2, 1, 1, 0, 0) 0.899379 0.100621;
   (0, 0, 0, 1, 0) 0.532057 0.467943;
   (1, 0, 0, 1, 0) 0.924099 0.0759014;
   (2, 0, 0, 1, 0) 0.0436781 0.956322;
   (0, 1, 0, 1, 0) 0.0781294 0.921871;
   (1, 1, 0, 1, 0) 0.585669 0.414331;
   (2, 1, 0, 1, 0) 0.132029 0.867971;
   (0, 0, 1, 1, 0) 0.417897 0.582103;
   (1, 0, 1, 1, 0) 0.0819497 0.91805;
   (2, 0, 1, 1, 0) 0.0774326 0.922567;
   (0, 1, 1, 1, 0) 0.430109 0.569891;
   (1, 1, 1, 1, 0) 0.59581 0.40419;
   (2, 1, 1, 1, 0) 0.954713 0.0452867;
   (0, 0, 0, 0, 1) 0.0744972 0.925503;
   (1, 0, 0, 0, 1) 0.661277 0.338723;
   (2, 0, 0, 0, 1) 0.548221 0.451779;
   (0, 1, 0, 0, 1) 0.250556 0.749444;
   (1, 1, 0, 0, 1) 0.865847 0.134153;
   (2, 1, 0, 0, 1) 0.606971 0.393029;
   (0, 0, 1, 0, 1) 0.277934 0.722066;
   (1, 0, 1, 0, 1) 0.382848 0.617152;
   (2, 0, 1, 0, 1) 0.753693 0.246307;
   (0, 1, 1, 0, 1) 0.774017 0.225983;
   (1, 1, 1, 0, 1) 0.131269 0.868731;
   (2, 1, 1, 0, 1) 0.832404 0.167596;
   (0, 0, 0, 1, 1) 0.485787 0.514213;
   (1, 0, 0, 1, 1) 0.331925 0.668075;
   (2, 0, 0, 1, 1) 0.176402 0.823598;
   (0, 1, 0, 1, 1) 0.61942 0.38058;
   (1, 1, 0, 1, 1) 0.429933 0.570067;
   (2, 1, 0, 1, 1) 0.475128 0.524872;
   (0, 0, 1, 1, 1) 0.438322 0.561678;
   (1, 0, 1, 1, 1) 0.675174 0.324826;
   (2, 0, 1, 1, 1) 0.728015 0.271985;
   (0, 1, 1, 1, 1) 0.766313 0.233687;
   (1, 1, 1, 1, 1) 0.247387 0.752613;
   (2, 1, 1, 1, 1) 0.326124 0.673876;
   (0, 0, 0, 0, 2) 0.568416 0.431584;
   (1, 0, 0, 0, 2) 0.861861 0.138139;
   (2, 0, 0, 0, 2) 0.452765 0.547235;
   (0, 1, 0, 0, 2) 0.476307 0.523693;
   (1, 1, 0, 0, 2) 0.525544 0.474456;
   (2, 1, 0, 0, 2) 0.500687 0.499313;
   (0, 0, 1, 0, 2) 0.695642 0.304358;
   (1, 0, 1, 0, 2) 0.516485 0.483515;
   (2, 0, 1, 0, 2) 0.689102 0.310898;
   (0, 1, 1, 0, 2) 0.423463 0.576537;
   (1, 1, 1, 0, 2) 0.210495 0.789505;
   (2, 1, 1, 0, 2) 0.894528 0.105472;
   (0, 0, 0, 1, 2) 0.218399 0.781601;
   (1, 0, 0, 1, 2) 0.425174 0.574826;
   (2, 0, 0, 1, 2) 0.3883 0.6117;
   (0, 1, 0, 1, 2) 0.334403 0.665597;
   (1, 1, 0, 1, 2) 0.751926 0.248074;
   (2, 1, 0, 1, 2) 0.565029 0.434971;
   (0, 0, 1, 1, 2) 0.919734 0.0802656;
   (1, 0, 1, 1, 2) 0.549189 0.450811;
   (2, 0, 1, 1, 2) 0.461426 0.538574;
   (0, 1, 1, 1, 2) 0.377794 0.622206;
   (1, 1, 1, 1, 2) 0.636779 0.363221;
   (2, 1, 1, 1, 2) 0.478848 0.521152;
}

