network "unnamedBN" {
// written by aGrUM 0.20.2.9
}

variable n_0 {
   type discrete[2] {0, 1};
}

variable n_1 {
   type discrete[3] {0, 1, 2};
}

variable n_2 {
   type discrete[3] {0, 1, 2};
}

variable n_3 {
   type discrete[2] {0, 1};
}

variable n_4 {
   type discrete[2] {0, 1};
}

variable n_5 {
   type discrete[2] {0, 1};
}

variable n_6 {
   type discrete[2] {0, 1};
}

variable n_7 {
   type discrete[2] {0, 1};
}

variable n_8 {
   type discrete[3] {0, 1, 2};
}

variable n_9 {
   type discrete[2] {0, 1};
}

variable n_10 {
   type discrete[3] {0, 1, 2};
}

variable n_11 {
   type discrete[3] {0, 1, 2};
}

variable n_12 {
   type discrete[2] {0, 1};
}

variable n_13 {
   type discrete[2] {0, 1};
}

variable n_14 {
   type discrete[2] {0, 1};
}

variable n_15 {
   type discrete[3] {0, 1, 2};
}

variable n_16 {
   type discrete[3] {0, 1, 2};
}

variable n_17 {
   type discrete[2] {0, 1};
}

variable n_18 {
   type discrete[2] {0, 1};
}

variable n_19 {
   type discrete[2] {0, 1};
}

probability (n_0 | n_9, n_11, n_3, n_13) {
   (0, 0, 0, 0) 0.791276 0.208724;
   (1, 0, 0, 0) 0.354957 0.645043;
   (0, 1, 0, 0) 0.0419264 0.958074;
   (1, 1, 0, 0) 0.795487 0.204513;
   (0, 2, 0, 0) 0.191431 0.808569;
   (1, 2, 0, 0) 0.61171 0.38829;
   (0, 0, 1, 0) 0.195981 0.804019;
   (1, 0, 1, 0) 0.0536545 0.946345;
   (0, 1, 1, 0) 0.03948 0.96052;
   (1, 1, 1, 0) 0.571232 0.428768;
   (0, 2, 1, 0) 0.579587 0.420413;
   (1, 2, 1, 0) 0.0758263 0.924174;
   (0, 0, 0, 1) 0.455118 0.544882;
   (1, 0, 0, 1) 0.678429 0.321571;
   (0, 1, 0, 1) 0.612939 0.387061;
   (1, 1, 0, 1) 0.7262 0.2738;
   (0, 2, 0, 1) 0.370989 0.629011;
   (1, 2, 0, 1) 0.527617 0.472383;
   (0, 0, 1, 1) 0.496331 0.503669;
   (1, 0, 1, 1) 0.987035 0.0129655;
   (0, 1, 1, 1) 0.580307 0.419693;
   (1, 1, 1, 1) 0.429879 0.570121;
   (0, 2, 1, 1) 0.658717 0.341283;
   (1, 2, 1, 1) 0.164188 0.835812;
}
probability (n_1) {
   default 0.0663044 0.647133 0.286563;
}
probability (n_2 | n_19) {
   (0) 0.464234 0.24992 0.285846;
   (1) 0.556642 0.13879 0.304568;
}
probability (n_3) {
   default 0.364572 0.635428;
}
probability (n_4 | n_13) {
   (0) 0.0815804 0.91842;
   (1) 0.370948 0.629052;
}
probability (n_5 | n_14) {
   (0) 0.562535 0.437465;
   (1) 0.0564506 0.943549;
}
probability (n_6 | n_5, n_14) {
   (0, 0) 0.0979999 0.902;
   (1, 0) 0.834962 0.165038;
   (0, 1) 0.287733 0.712267;
   (1, 1) 0.368729 0.631271;
}
probability (n_7 | n_12, n_9) {
   (0, 0) 0.418677 0.581323;
   (1, 0) 0.0328227 0.967177;
   (0, 1) 0.0137137 0.986286;
   (1, 1) 0.532735 0.467265;
}
probability (n_8 | n_14) {
   (0) 0.287895 0.313385 0.39872;
   (1) 0.259949 0.376806 0.363245;
}
probability (n_9 | n_14, n_13) {
   (0, 0) 0.536805 0.463195;
   (1, 0) 0.705035 0.294965;
   (0, 1) 0.21498 0.78502;
   (1, 1) 0.612946 0.387054;
}
probability (n_10 | n_2) {
   (0) 0.455902 0.381678 0.16242;
   (1) 0.121929 0.458748 0.419322;
   (2) 0.0181764 0.19606 0.785764;
}
probability (n_11) {
   default 0.604305 0.0172896 0.378405;
}
probability (n_12 | n_14, n_8, n_1, n_17, n_19) {
   (0, 0, 0, 0, 0) 0.842684 0.157316;
   (1, 0, 0, 0, 0) 0.812718 0.187282;
   (0, 1, 0, 0, 0) 0.535531 0.464469;
   (1, 1, 0, 0, 0) 0.589986 0.410014;
   (0, 2, 0, 0, 0) 0.502927 0.497073;
   (1, 2, 0, 0, 0) 0.26133 0.73867;
   (0, 0, 1, 0, 0) 0.152891 0.847109;
   (1, 0, 1, 0, 0) 0.591135 0.408865;
   (0, 1, 1, 0, 0) 0.199373 0.800627;
   (1, 1, 1, 0, 0) 0.401151 0.598849;
   (0, 2, 1, 0, 0) 0.275987 0.724013;
   (1, 2, 1, 0, 0) 0.5163 0.4837;
   (0, 0, 2, 0, 0) 0.228996 0.771004;
   (1, 0, 2, 0, 0) 0.589007 0.410993;
   (0, 1, 2, 0, 0) 0.997724 0.0022762;
   (1, 1, 2, 0, 0) 0.11727 0.88273;
   (0, 2, 2, 0, 0) 0.0676028 0.932397;
   (1, 2, 2, 0, 0) 0.50365 0.49635;
   (0, 0, 0, 1, 0) 0.343403 0.656597;
   (1, 0, 0, 1, 0) 0.306374 0.693626;
   (0, 1, 0, 1, 0) 0.687759 0.312241;
   (1, 1, 0, 1, 0) 0.489324 0.510676;
   (0, 2, 0, 1, 0) 0.913403 0.0865968;
   (1, 2, 0, 1, 0) 0.500061 0.499939;
   (0, 0, 1, 1, 0) 0.632768 0.367232;
   (1, 0, 1, 1, 0) 0.841957 0.158043;
   (0, 1, 1, 1, 0) 0.249308 0.750692;
   (1, 1, 1, 1, 0) 0.0446901 0.95531;
   (0, 2, 1, 1, 0) 0.990404 0.00959554;
   (1, 2, 1, 1, 0) 0.424205 0.575795;
   (0, 0, 2, 1, 0) 0.0246346 0.975365;
   (1, 0, 2, 1, 0) 0.613242 0.386758;
   (0, 1, 2, 1, 0) 0.449633 0.550367;
   (1, 1, 2, 1, 0) 0.486836 0.513164;
   (0, 2, 2, 1, 0) 0.746404 0.253596;
   (1, 2, 2, 1, 0) 0.304937 0.695063;
   (0, 0, 0, 0, 1) 0.854156 0.145844;
   (1, 0, 0, 0, 1) 0.79248 0.20752;
   (0, 1, 0, 0, 1) 0.193088 0.806912;
   (1, 1, 0, 0, 1) 0.985886 0.0141142;
   (0, 2, 0, 0, 1) 0.0810631 0.918937;
   (1, 2, 0, 0, 1) 0.316847 0.683153;
   (0, 0, 1, 0, 1) 0.778956 0.221044;
   (1, 0, 1, 0, 1) 0.77207 0.22793;
   (0, 1, 1, 0, 1) 0.870325 0.129675;
   (1, 1, 1, 0, 1) 0.738544 0.261456;
   (0, 2, 1, 0, 1) 0.363345 0.636655;
   (1, 2, 1, 0, 1) 0.68808 0.31192;
   (0, 0, 2, 0, 1) 0.801941 0.198059;
   (1, 0, 2, 0, 1) 0.0638806 0.936119;
   (0, 1, 2, 0, 1) 0.337092 0.662908;
   (1, 1, 2, 0, 1) 0.543374 0.456626;
   (0, 2, 2, 0, 1) 0.617423 0.382577;
   (1, 2, 2, 0, 1) 0.538262 0.461738;
   (0, 0, 0, 1, 1) 0.5 0.5;
   (1, 0, 0, 1, 1) 0.401875 0.598125;
   (0, 1, 0, 1, 1) 0.49708 0.50292;
   (1, 1, 0, 1, 1) 0.427605 0.572395;
   (0, 2, 0, 1, 1) 0.895444 0.104556;
   (1, 2, 0, 1, 1) 0.814339 0.185661;
   (0, 0, 1, 1, 1) 0.492107 0.507893;
   (1, 0, 1, 1, 1) 0.408943 0.591057;
   (0, 1, 1, 1, 1) 0.568706 0.431294;
   (1, 1, 1, 1, 1) 0.697643 0.302357;
   (0, 2, 1, 1, 1) 0.519415 0.480585;
   (1, 2, 1, 1, 1) 0.0682181 0.931782;
   (0, 0, 2, 1, 1) 0.0917221 0.908278;
   (1, 0, 2, 1, 1) 0.463233 0.536767;
   (0, 1, 2, 1, 1) 0.277885 0.722115;
   (1, 1, 2, 1, 1) 0.98793 0.0120701;
   (0, 2, 2, 1, 1) 0.16022 0.83978;
   (1, 2, 2, 1, 1) 0.504018 0.495982;
}
probability (n_13 | n_2) {
   (0) 0.725881 0.274119;
   (1) 0.340641 0.659359;
   (2) 0.279793 0.720207;
}
probability (n_14) {
   default 0.611624 0.388376;
}
probability (n_15 | n_18, n_6, n_10) {
   (0, 0, 0) 0.0954964 0.113402 0.791102;
   (1, 0, 0) 0.402592 0.329752 0.267655;
   (0, 1, 0) 0.141227 0.568305 0.290467;
   (1, 1, 0) 0.224635 0.394633 0.380731;
   (0, 0, 1) 0.363423 0.304502 0.332074;
   (1, 0, 1) 0.221457 0.292035 0.486508;
   (0, 1, 1) 0.174248 0.772362 0.0533899;
   (1, 1, 1) 0.034488 0.21228 0.753232;
   (0, 0, 2) 0.240432 0.442894 0.316674;
   (1, 0, 2) 0.479355 0.372257 0.148388;
   (0, 1, 2) 0.164415 0.541041 0.294544;
   (1, 1, 2) 0.257922 0.682269 0.0598085;
}
probability (n_16 | n_1, n_7, n_4) {
   (0, 0, 0) 0.428612 0.334193 0.237194;
   (1, 0, 0) 0.395171 0.31276 0.292069;
   (2, 0, 0) 0.148643 0.499328 0.352029;
   (0, 1, 0) 0.049886 0.543676 0.406438;
   (1, 1, 0) 0.102108 0.448984 0.448908;
   (2, 1, 0) 0.0975257 0.409017 0.493457;
   (0, 0, 1) 0.578948 0.0774162 0.343635;
   (1, 0, 1) 0.263042 0.676861 0.0600971;
   (2, 0, 1) 0.233131 0.446067 0.320802;
   (0, 1, 1) 0.691534 0.144434 0.164032;
   (1, 1, 1) 0.347751 0.352645 0.299604;
   (2, 1, 1) 0.19089 0.501748 0.307361;
}
probability (n_17 | n_2) {
   (0) 0.228163 0.771837;
   (1) 0.299045 0.700955;
   (2) 0.124844 0.875156;
}
probability (n_18 | n_3) {
   (0) 0.146086 0.853914;
   (1) 0.467672 0.532328;
}
probability (n_19) {
   default 0.475094 0.524906;
}

