network "unnamedBN" {
// written by aGrUM 0.20.2.9
}

variable n_0 {
   type discrete[2] {0, 1};
}

variable n_1 {
   type discrete[3] {0, 1, 2};
}

variable n_2 {
   type discrete[2] {0, 1};
}

variable n_3 {
   type discrete[2] {0, 1};
}

variable n_4 {
   type discrete[2] {0, 1};
}

variable n_5 {
   type discrete[3] {0, 1, 2};
}

variable n_6 {
   type discrete[3] {0, 1, 2};
}

variable n_7 {
   type discrete[2] {0, 1};
}

variable n_8 {
   type discrete[3] {0, 1, 2};
}

variable n_9 {
   type discrete[2] {0, 1};
}

variable n_10 {
   type discrete[3] {0, 1, 2};
}

variable n_11 {
   type discrete[2] {0, 1};
}

variable n_12 {
   type discrete[2] {0, 1};
}

variable n_13 {
   type discrete[3] {0, 1, 2};
}

variable n_14 {
   type discrete[3] {0, 1, 2};
}

variable n_15 {
   type discrete[3] {0, 1, 2};
}

variable n_16 {
   type discrete[2] {0, 1};
}

variable n_17 {
   type discrete[3] {0, 1, 2};
}

variable n_18 {
   type discrete[2] {0, 1};
}

variable n_19 {
   type discrete[2] {0, 1};
}

variable n_20 {
   type discrete[3] {0, 1, 2};
}

variable n_21 {
   type discrete[3] {0, 1, 2};
}

variable n_22 {
   type discrete[3] {0, 1, 2};
}

variable n_23 {
   type discrete[2] {0, 1};
}

variable n_24 {
   type discrete[3] {0, 1, 2};
}

variable n_25 {
   type discrete[3] {0, 1, 2};
}

variable n_26 {
   type discrete[2] {0, 1};
}

variable n_27 {
   type discrete[2] {0, 1};
}

variable n_28 {
   type discrete[3] {0, 1, 2};
}

variable n_29 {
   type discrete[2] {0, 1};
}

probability (n_0) {
   default 0.834476 0.165524;
}
probability (n_1 | n_15) {
   (0) 0.683574 0.114227 0.202199;
   (1) 0.671194 0.0332663 0.295539;
   (2) 0.492385 0.365771 0.141844;
}
probability (n_2 | n_5, n_14) {
   (0, 0) 0.895666 0.104334;
   (1, 0) 0.788526 0.211474;
   (2, 0) 0.414959 0.585041;
   (0, 1) 0.906332 0.0936681;
   (1, 1) 0.670559 0.329441;
   (2, 1) 0.525927 0.474073;
   (0, 2) 0.498533 0.501467;
   (1, 2) 0.339462 0.660538;
   (2, 2) 0.615455 0.384545;
}
probability (n_3) {
   default 0.229984 0.770016;
}
probability (n_4 | n_6) {
   (0) 0.605014 0.394986;
   (1) 0.341517 0.658483;
   (2) 0.832657 0.167343;
}
probability (n_5) {
   default 0.262803 0.388209 0.348988;
}
probability (n_6 | n_9, n_18) {
   (0, 0) 0.252183 0.20211 0.545707;
   (1, 0) 0.113232 0.575457 0.311311;
   (0, 1) 0.322897 0.319775 0.357328;
   (1, 1) 0.649253 0.292937 0.05781;
}
probability (n_7) {
   default 0.805943 0.194057;
}
probability (n_8 | n_25, n_3) {
   (0, 0) 0.235054 0.597765 0.167181;
   (1, 0) 0.252895 0.37742 0.369685;
   (2, 0) 0.587378 0.188816 0.223806;
   (0, 1) 0.414201 0.22421 0.361589;
   (1, 1) 0.319786 0.396418 0.283795;
   (2, 1) 0.286489 0.307009 0.406502;
}
probability (n_9 | n_27, n_11) {
   (0, 0) 0.413847 0.586153;
   (1, 0) 0.60126 0.39874;
   (0, 1) 0.382954 0.617046;
   (1, 1) 0.87272 0.12728;
}
probability (n_10 | n_22, n_23) {
   (0, 0) 0.203341 0.676193 0.120466;
   (1, 0) 0.41202 0.346169 0.241811;
   (2, 0) 0.426806 0.555094 0.0181005;
   (0, 1) 0.276075 0.371056 0.352869;
   (1, 1) 0.533247 0.00748735 0.459265;
   (2, 1) 0.224355 0.641379 0.134266;
}
probability (n_11 | n_28) {
   (0) 0.757498 0.242502;
   (1) 0.615983 0.384017;
   (2) 0.881678 0.118322;
}
probability (n_12) {
   default 0.146585 0.853415;
}
probability (n_13 | n_22) {
   (0) 0.549296 0.342413 0.108292;
   (1) 0.540448 0.278753 0.180798;
   (2) 0.365372 0.580773 0.0538548;
}
probability (n_14) {
   default 0.362057 0.360296 0.277647;
}
probability (n_15 | n_6) {
   (0) 0.403403 0.45731 0.139287;
   (1) 0.442867 0.499648 0.0574847;
   (2) 0.45795 0.272043 0.270007;
}
probability (n_16) {
   default 0.465985 0.534015;
}
probability (n_17 | n_21, n_0, n_16) {
   (0, 0, 0) 0.24469 0.633935 0.121376;
   (1, 0, 0) 0.417635 0.415258 0.167107;
   (2, 0, 0) 0.387178 0.165865 0.446957;
   (0, 1, 0) 0.133751 0.335405 0.530844;
   (1, 1, 0) 0.434246 0.525891 0.0398629;
   (2, 1, 0) 0.132405 0.837824 0.0297709;
   (0, 0, 1) 0.0597848 0.347442 0.592773;
   (1, 0, 1) 0.0604625 0.571954 0.367583;
   (2, 0, 1) 0.42186 0.48442 0.0937205;
   (0, 1, 1) 0.157456 0.259032 0.583512;
   (1, 1, 1) 0.413902 0.335259 0.250839;
   (2, 1, 1) 0.698903 0.211284 0.0898123;
}
probability (n_18 | n_7) {
   (0) 0.74103 0.25897;
   (1) 0.877717 0.122283;
}
probability (n_19 | n_15) {
   (0) 0.207223 0.792777;
   (1) 0.483719 0.516281;
   (2) 0.433826 0.566174;
}
probability (n_20 | n_14) {
   (0) 0.424746 0.191485 0.38377;
   (1) 0.035446 0.532788 0.431766;
   (2) 0.119244 0.62856 0.252196;
}
probability (n_21 | n_3) {
   (0) 0.437446 0.332346 0.230208;
   (1) 0.417386 0.0564915 0.526122;
}
probability (n_22 | n_27) {
   (0) 0.414424 0.293554 0.292023;
   (1) 0.319295 0.373653 0.307053;
}
probability (n_23 | n_17) {
   (0) 0.492573 0.507427;
   (1) 0.153271 0.846729;
   (2) 0.662334 0.337666;
}
probability (n_24 | n_12, n_18) {
   (0, 0) 0.500422 0.0158722 0.483706;
   (1, 0) 0.344362 0.555198 0.10044;
   (0, 1) 0.700499 0.0871906 0.21231;
   (1, 1) 0.195264 0.147572 0.657164;
}
probability (n_25 | n_14, n_23) {
   (0, 0) 0.417992 0.114456 0.467552;
   (1, 0) 0.0982401 0.269408 0.632352;
   (2, 0) 0.364367 0.219612 0.416021;
   (0, 1) 0.442752 0.459951 0.0972971;
   (1, 1) 0.388582 0.527838 0.08358;
   (2, 1) 0.415106 0.422844 0.16205;
}
probability (n_26 | n_13, n_8) {
   (0, 0) 0.606555 0.393445;
   (1, 0) 0.349223 0.650777;
   (2, 0) 0.361915 0.638085;
   (0, 1) 0.538206 0.461794;
   (1, 1) 0.291646 0.708354;
   (2, 1) 0.615387 0.384613;
   (0, 2) 0.611063 0.388937;
   (1, 2) 0.568977 0.431023;
   (2, 2) 0.908785 0.0912148;
}
probability (n_27) {
   default 0.227426 0.772574;
}
probability (n_28 | n_27) {
   (0) 0.139799 0.35575 0.50445;
   (1) 0.109265 0.566316 0.324419;
}
probability (n_29 | n_23, n_3) {
   (0, 0) 0.516062 0.483938;
   (1, 0) 0.232961 0.767039;
   (0, 1) 0.668218 0.331782;
   (1, 1) 0.384618 0.615382;
}

