network "unnamedBN" {
// written by aGrUM 0.20.2.9
}

variable n_0 {
   type discrete[2] {0, 1};
}

variable n_1 {
   type discrete[2] {0, 1};
}

variable n_2 {
   type discrete[3] {0, 1, 2};
}

variable n_3 {
   type discrete[3] {0, 1, 2};
}

variable n_4 {
   type discrete[2] {0, 1};
}

variable n_5 {
   type discrete[2] {0, 1};
}

variable n_6 {
   type discrete[3] {0, 1, 2};
}

variable n_7 {
   type discrete[3] {0, 1, 2};
}

variable n_8 {
   type discrete[2] {0, 1};
}

variable n_9 {
   type discrete[2] {0, 1};
}

variable n_10 {
   type discrete[2] {0, 1};
}

variable n_11 {
   type discrete[3] {0, 1, 2};
}

variable n_12 {
   type discrete[2] {0, 1};
}

variable n_13 {
   type discrete[2] {0, 1};
}

variable n_14 {
   type discrete[3] {0, 1, 2};
}

variable n_15 {
   type discrete[3] {0, 1, 2};
}

variable n_16 {
   type discrete[2] {0, 1};
}

variable n_17 {
   type discrete[2] {0, 1};
}

variable n_18 {
   type discrete[2] {0, 1};
}

variable n_19 {
   type discrete[3] {0, 1, 2};
}

variable n_20 {
   type discrete[3] {0, 1, 2};
}

variable n_21 {
   type discrete[2] {0, 1};
}

variable n_22 {
   type discrete[3] {0, 1, 2};
}

variable n_23 {
   type discrete[3] {0, 1, 2};
}

variable n_24 {
   type discrete[3] {0, 1, 2};
}

variable n_25 {
   type discrete[2] {0, 1};
}

variable n_26 {
   type discrete[3] {0, 1, 2};
}

variable n_27 {
   type discrete[2] {0, 1};
}

variable n_28 {
   type discrete[2] {0, 1};
}

variable n_29 {
   type discrete[3] {0, 1, 2};
}

probability (n_0) {
   default 0.194124 0.805876;
}
probability (n_1 | n_25, n_21, n_5) {
   (0, 0, 0) 0.282031 0.717969;
   (1, 0, 0) 0.698814 0.301186;
   (0, 1, 0) 0.515363 0.484637;
   (1, 1, 0) 0.606627 0.393373;
   (0, 0, 1) 0.831067 0.168933;
   (1, 0, 1) 0.44816 0.55184;
   (0, 1, 1) 0.178405 0.821595;
   (1, 1, 1) 0.765097 0.234903;
}
probability (n_2 | n_15) {
   (0) 0.235851 0.311784 0.452365;
   (1) 0.138151 0.561057 0.300792;
   (2) 0.170646 0.0460322 0.783322;
}
probability (n_3 | n_14, n_24) {
   (0, 0) 0.463434 0.114066 0.4225;
   (1, 0) 0.140852 0.169979 0.68917;
   (2, 0) 0.428428 0.0465829 0.524989;
   (0, 1) 0.397013 0.176592 0.426395;
   (1, 1) 0.330254 0.410635 0.259112;
   (2, 1) 0.573749 0.290437 0.135815;
   (0, 2) 0.0866765 0.209873 0.703451;
   (1, 2) 0.19172 0.452346 0.355934;
   (2, 2) 0.257909 0.706714 0.0353772;
}
probability (n_4 | n_0) {
   (0) 0.942101 0.0578992;
   (1) 0.333335 0.666665;
}
probability (n_5 | n_24, n_3, n_29) {
   (0, 0, 0) 0.624684 0.375316;
   (1, 0, 0) 0.464946 0.535054;
   (2, 0, 0) 0.75325 0.24675;
   (0, 1, 0) 0.699532 0.300468;
   (1, 1, 0) 0.498874 0.501126;
   (2, 1, 0) 0.542974 0.457026;
   (0, 2, 0) 0.409777 0.590223;
   (1, 2, 0) 0.360616 0.639384;
   (2, 2, 0) 0.313323 0.686677;
   (0, 0, 1) 0.533603 0.466397;
   (1, 0, 1) 0.318582 0.681418;
   (2, 0, 1) 0.845497 0.154503;
   (0, 1, 1) 0.545101 0.454899;
   (1, 1, 1) 0.111872 0.888128;
   (2, 1, 1) 0.56524 0.43476;
   (0, 2, 1) 0.684758 0.315242;
   (1, 2, 1) 0.526938 0.473062;
   (2, 2, 1) 0.564672 0.435328;
   (0, 0, 2) 0.360115 0.639885;
   (1, 0, 2) 0.915629 0.0843711;
   (2, 0, 2) 0.34263 0.65737;
   (0, 1, 2) 0.444874 0.555126;
   (1, 1, 2) 0.330981 0.669019;
   (2, 1, 2) 0.338113 0.661887;
   (0, 2, 2) 0.331075 0.668925;
   (1, 2, 2) 0.188509 0.811491;
   (2, 2, 2) 0.625543 0.374457;
}
probability (n_6 | n_18) {
   (0) 0.54273 0.050188 0.407082;
   (1) 0.023295 0.471694 0.505011;
}
probability (n_7 | n_25) {
   (0) 0.155487 0.579325 0.265188;
   (1) 0.64047 0.131823 0.227708;
}
probability (n_8 | n_15, n_19, n_16) {
   (0, 0, 0) 0.234775 0.765225;
   (1, 0, 0) 0.858971 0.141029;
   (2, 0, 0) 0.702638 0.297362;
   (0, 1, 0) 0.746405 0.253595;
   (1, 1, 0) 0.284684 0.715316;
   (2, 1, 0) 0.357099 0.642901;
   (0, 2, 0) 0.0904212 0.909579;
   (1, 2, 0) 0.611242 0.388758;
   (2, 2, 0) 0.687886 0.312114;
   (0, 0, 1) 0.577338 0.422662;
   (1, 0, 1) 0.430731 0.569269;
   (2, 0, 1) 0.708489 0.291511;
   (0, 1, 1) 0.341415 0.658585;
   (1, 1, 1) 0.0997589 0.900241;
   (2, 1, 1) 0.650881 0.349119;
   (0, 2, 1) 0.0150333 0.984967;
   (1, 2, 1) 0.441933 0.558067;
   (2, 2, 1) 0.716724 0.283276;
}
probability (n_9 | n_2, n_6) {
   (0, 0) 0.166474 0.833526;
   (1, 0) 0.687135 0.312865;
   (2, 0) 0.520176 0.479824;
   (0, 1) 0.435621 0.564379;
   (1, 1) 0.742536 0.257464;
   (2, 1) 0.5501 0.4499;
   (0, 2) 0.898466 0.101534;
   (1, 2) 0.47919 0.52081;
   (2, 2) 0.569813 0.430187;
}
probability (n_10 | n_7, n_18, n_21, n_16, n_26) {
   (0, 0, 0, 0, 0) 0.108136 0.891864;
   (1, 0, 0, 0, 0) 0.551708 0.448292;
   (2, 0, 0, 0, 0) 0.561289 0.438711;
   (0, 1, 0, 0, 0) 0.334628 0.665372;
   (1, 1, 0, 0, 0) 0.615687 0.384313;
   (2, 1, 0, 0, 0) 0.455336 0.544664;
   (0, 0, 1, 0, 0) 0.311175 0.688825;
   (1, 0, 1, 0, 0) 0.281175 0.718825;
   (2, 0, 1, 0, 0) 0.141745 0.858255;
   (0, 1, 1, 0, 0) 0.485259 0.514741;
   (1, 1, 1, 0, 0) 0.428608 0.571392;
   (2, 1, 1, 0, 0) 0.0211124 0.978888;
   (0, 0, 0, 1, 0) 0.530981 0.469019;
   (1, 0, 0, 1, 0) 0.616642 0.383358;
   (2, 0, 0, 1, 0) 0.730111 0.269889;
   (0, 1, 0, 1, 0) 0.615632 0.384368;
   (1, 1, 0, 1, 0) 0.761807 0.238193;
   (2, 1, 0, 1, 0) 0.428224 0.571776;
   (0, 0, 1, 1, 0) 0.861823 0.138177;
   (1, 0, 1, 1, 0) 0.475902 0.524098;
   (2, 0, 1, 1, 0) 0.321622 0.678378;
   (0, 1, 1, 1, 0) 0.532252 0.467748;
   (1, 1, 1, 1, 0) 0.178639 0.821361;
   (2, 1, 1, 1, 0) 0.645969 0.354031;
   (0, 0, 0, 0, 1) 0.529355 0.470645;
   (1, 0, 0, 0, 1) 0.115877 0.884123;
   (2, 0, 0, 0, 1) 0.878939 0.121061;
   (0, 1, 0, 0, 1) 0.27932 0.72068;
   (1, 1, 0, 0, 1) 0.474346 0.525654;
   (2, 1, 0, 0, 1) 0.353811 0.646189;
   (0, 0, 1, 0, 1) 0.723087 0.276913;
   (1, 0, 1, 0, 1) 0.325344 0.674656;
   (2, 0, 1, 0, 1) 0.716791 0.283209;
   (0, 1, 1, 0, 1) 0.990912 0.00908774;
   (1, 1, 1, 0, 1) 0.292651 0.707349;
   (2, 1, 1, 0, 1) 0.651776 0.348224;
   (0, 0, 0, 1, 1) 0.0195366 0.980463;
   (1, 0, 0, 1, 1) 0.0107476 0.989252;
   (2, 0, 0, 1, 1) 0.490217 0.509783;
   (0, 1, 0, 1, 1) 0.400291 0.599709;
   (1, 1, 0, 1, 1) 0.563458 0.436542;
   (2, 1, 0, 1, 1) 0.459514 0.540486;
   (0, 0, 1, 1, 1) 0.665178 0.334822;
   (1, 0, 1, 1, 1) 0.676861 0.323139;
   (2, 0, 1, 1, 1) 0.496027 0.503973;
   (0, 1, 1, 1, 1) 0.185561 0.814439;
   (1, 1, 1, 1, 1) 0.317167 0.682833;
   (2, 1, 1, 1, 1) 0.513237 0.486763;
   (0, 0, 0, 0, 2) 0.602207 0.397793;
   (1, 0, 0, 0, 2) 0.390012 0.609988;
   (2, 0, 0, 0, 2) 0.134821 0.865179;
   (0, 1, 0, 0, 2) 0.840565 0.159435;
   (1, 1, 0, 0, 2) 0.683743 0.316257;
   (2, 1, 0, 0, 2) 0.443287 0.556713;
   (0, 0, 1, 0, 2) 0.53327 0.46673;
   (1, 0, 1, 0, 2) 0.155178 0.844822;
   (2, 0, 1, 0, 2) 0.482867 0.517133;
   (0, 1, 1, 0, 2) 0.485356 0.514644;
   (1, 1, 1, 0, 2) 0.638252 0.361748;
   (2, 1, 1, 0, 2) 0.23981 0.76019;
   (0, 0, 0, 1, 2) 0.498323 0.501677;
   (1, 0, 0, 1, 2) 0.384803 0.615197;
   (2, 0, 0, 1, 2) 0.937485 0.0625147;
   (0, 1, 0, 1, 2) 0.277293 0.722707;
   (1, 1, 0, 1, 2) 0.379714 0.620286;
   (2, 1, 0, 1, 2) 0.53084 0.46916;
   (0, 0, 1, 1, 2) 0.732178 0.267822;
   (1, 0, 1, 1, 2) 0.71127 0.28873;
   (2, 0, 1, 1, 2) 0.977407 0.022593;
   (0, 1, 1, 1, 2) 0.589859 0.410141;
   (1, 1, 1, 1, 2) 0.506342 0.493658;
   (2, 1, 1, 1, 2) 0.37068 0.62932;
}
probability (n_11 | n_29, n_12, n_5) {
   (0, 0, 0) 0.486706 0.0750256 0.438268;
   (1, 0, 0) 0.525576 0.256963 0.217462;
   (2, 0, 0) 0.254223 0.387974 0.357804;
   (0, 1, 0) 0.442315 0.21602 0.341665;
   (1, 1, 0) 0.00049501 0.62051 0.378995;
   (2, 1, 0) 0.409907 0.473735 0.116358;
   (0, 0, 1) 0.379999 0.0115733 0.608428;
   (1, 0, 1) 0.437253 0.143939 0.418808;
   (2, 0, 1) 0.412851 0.44162 0.145529;
   (0, 1, 1) 0.378804 0.401596 0.2196;
   (1, 1, 1) 0.390963 0.412323 0.196713;
   (2, 1, 1) 0.00675499 0.470961 0.522284;
}
probability (n_12) {
   default 0.555211 0.444789;
}
probability (n_13) {
   default 0.865266 0.134734;
}
probability (n_14) {
   default 0.196645 0.0938023 0.709553;
}
probability (n_15 | n_7) {
   (0) 0.170001 0.627275 0.202724;
   (1) 0.461016 0.285887 0.253097;
   (2) 0.443253 0.225744 0.331003;
}
probability (n_16 | n_12) {
   (0) 0.521285 0.478715;
   (1) 0.430986 0.569014;
}
probability (n_17 | n_1) {
   (0) 0.456826 0.543174;
   (1) 0.481468 0.518532;
}
probability (n_18 | n_29, n_13) {
   (0, 0) 0.477578 0.522422;
   (1, 0) 0.358561 0.641439;
   (2, 0) 0.650669 0.349331;
   (0, 1) 0.455573 0.544427;
   (1, 1) 0.662103 0.337897;
   (2, 1) 0.534164 0.465836;
}
probability (n_19 | n_28, n_11) {
   (0, 0) 0.183597 0.329359 0.487044;
   (1, 0) 0.107901 0.497422 0.394677;
   (0, 1) 0.401543 0.196658 0.401799;
   (1, 1) 0.227342 0.0723286 0.70033;
   (0, 2) 0.510434 0.3341 0.155466;
   (1, 2) 0.35718 0.261296 0.381525;
}
probability (n_20 | n_5, n_11, n_29) {
   (0, 0, 0) 0.185743 0.739192 0.0750643;
   (1, 0, 0) 0.387464 0.347148 0.265389;
   (0, 1, 0) 0.747223 0.13336 0.119417;
   (1, 1, 0) 0.171862 0.241685 0.586454;
   (0, 2, 0) 0.428855 0.323162 0.247983;
   (1, 2, 0) 0.393746 0.40342 0.202834;
   (0, 0, 1) 0.306682 0.300702 0.392616;
   (1, 0, 1) 0.158404 0.403126 0.43847;
   (0, 1, 1) 0.407025 0.35942 0.233555;
   (1, 1, 1) 0.232901 0.762048 0.00505085;
   (0, 2, 1) 0.376558 0.278017 0.345425;
   (1, 2, 1) 0.601087 0.169955 0.228959;
   (0, 0, 2) 0.403748 0.0754292 0.520823;
   (1, 0, 2) 0.296666 0.196336 0.506998;
   (0, 1, 2) 0.323874 0.229077 0.447049;
   (1, 1, 2) 0.0318265 0.284221 0.683953;
   (0, 2, 2) 0.320936 0.559605 0.119459;
   (1, 2, 2) 0.206452 0.120378 0.67317;
}
probability (n_21) {
   default 0.88146 0.11854;
}
probability (n_22 | n_5) {
   (0) 0.473239 0.421788 0.104973;
   (1) 0.20125 0.737234 0.0615161;
}
probability (n_23 | n_27) {
   (0) 0.627272 0.349693 0.023035;
   (1) 0.0815212 0.607279 0.3112;
}
probability (n_24 | n_26, n_14) {
   (0, 0) 0.125039 0.235874 0.639088;
   (1, 0) 0.444286 0.209575 0.346139;
   (2, 0) 0.392651 0.405163 0.202186;
   (0, 1) 0.0656523 0.30645 0.627898;
   (1, 1) 0.522124 0.348819 0.129056;
   (2, 1) 0.118718 0.53712 0.344161;
   (0, 2) 0.294685 0.633404 0.0719114;
   (1, 2) 0.209307 0.339355 0.451338;
   (2, 2) 0.425189 0.401982 0.172829;
}
probability (n_25 | n_20, n_21, n_22) {
   (0, 0, 0) 0.464462 0.535538;
   (1, 0, 0) 0.54325 0.45675;
   (2, 0, 0) 0.655402 0.344598;
   (0, 1, 0) 0.808777 0.191223;
   (1, 1, 0) 0.74364 0.25636;
   (2, 1, 0) 0.0900914 0.909909;
   (0, 0, 1) 0.816179 0.183821;
   (1, 0, 1) 0.615793 0.384207;
   (2, 0, 1) 0.156151 0.843849;
   (0, 1, 1) 0.771503 0.228497;
   (1, 1, 1) 0.477321 0.522679;
   (2, 1, 1) 0.426721 0.573279;
   (0, 0, 2) 0.264844 0.735156;
   (1, 0, 2) 0.0549685 0.945031;
   (2, 0, 2) 0.183093 0.816907;
   (0, 1, 2) 0.161454 0.838546;
   (1, 1, 2) 0.911671 0.0883295;
   (2, 1, 2) 0.384323 0.615677;
}
probability (n_26) {
   default 0.342193 0.090559 0.567248;
}
probability (n_27 | n_4, n_14) {
   (0, 0) 0.0625833 0.937417;
   (1, 0) 0.599117 0.400883;
   (0, 1) 0.517583 0.482417;
   (1, 1) 0.446501 0.553499;
   (0, 2) 0.221526 0.778474;
   (1, 2) 0.599726 0.400274;
}
probability (n_28) {
   default 0.280194 0.719806;
}
probability (n_29 | n_21) {
   (0) 0.286356 0.338001 0.375643;
   (1) 0.186857 0.412732 0.400411;
}

