network "unnamedBN" {
// written by aGrUM 0.20.2.9
}

variable n_0 {
   type discrete[3] {0, 1, 2};
}

variable n_1 {
   type discrete[3] {0, 1, 2};
}

variable n_2 {
   type discrete[3] {0, 1, 2};
}

variable n_3 {
   type discrete[2] {0, 1};
}

variable n_4 {
   type discrete[3] {0, 1, 2};
}

variable n_5 {
   type discrete[3] {0, 1, 2};
}

variable n_6 {
   type discrete[3] {0, 1, 2};
}

variable n_7 {
   type discrete[3] {0, 1, 2};
}

variable n_8 {
   type discrete[2] {0, 1};
}

variable n_9 {
   type discrete[3] {0, 1, 2};
}

variable n_10 {
   type discrete[3] {0, 1, 2};
}

variable n_11 {
   type discrete[2] {0, 1};
}

variable n_12 {
   type discrete[2] {0, 1};
}

variable n_13 {
   type discrete[2] {0, 1};
}

variable n_14 {
   type discrete[2] {0, 1};
}

variable n_15 {
   type discrete[3] {0, 1, 2};
}

variable n_16 {
   type discrete[2] {0, 1};
}

variable n_17 {
   type discrete[2] {0, 1};
}

variable n_18 {
   type discrete[2] {0, 1};
}

variable n_19 {
   type discrete[3] {0, 1, 2};
}

variable n_20 {
   type discrete[3] {0, 1, 2};
}

variable n_21 {
   type discrete[3] {0, 1, 2};
}

variable n_22 {
   type discrete[3] {0, 1, 2};
}

variable n_23 {
   type discrete[2] {0, 1};
}

variable n_24 {
   type discrete[3] {0, 1, 2};
}

variable n_25 {
   type discrete[3] {0, 1, 2};
}

variable n_26 {
   type discrete[2] {0, 1};
}

variable n_27 {
   type discrete[2] {0, 1};
}

variable n_28 {
   type discrete[3] {0, 1, 2};
}

variable n_29 {
   type discrete[2] {0, 1};
}

probability (n_0 | n_25, n_22) {
   (0, 0) 0.320837 0.592746 0.0864173;
   (1, 0) 0.0288469 0.0483622 0.922791;
   (2, 0) 0.200147 0.753116 0.0467371;
   (0, 1) 0.131989 0.293653 0.574358;
   (1, 1) 0.05471 0.463457 0.481833;
   (2, 1) 0.376882 0.0410357 0.582083;
   (0, 2) 0.0379435 0.516832 0.445224;
   (1, 2) 0.154645 0.11869 0.726665;
   (2, 2) 0.467419 0.161558 0.371024;
}
probability (n_1 | n_23, n_11) {
   (0, 0) 0.0178291 0.582561 0.39961;
   (1, 0) 0.617233 0.194571 0.188196;
   (0, 1) 0.105785 0.441033 0.453182;
   (1, 1) 0.00561084 0.343246 0.651143;
}
probability (n_2 | n_19, n_16) {
   (0, 0) 0.0391264 0.610163 0.35071;
   (1, 0) 0.500916 0.421735 0.077349;
   (2, 0) 0.560882 0.276479 0.162639;
   (0, 1) 0.290692 0.207167 0.502142;
   (1, 1) 0.263623 0.613279 0.123098;
   (2, 1) 0.0263578 0.474579 0.499063;
}
probability (n_3 | n_28) {
   (0) 0.619988 0.380012;
   (1) 0.529136 0.470864;
   (2) 0.368483 0.631517;
}
probability (n_4 | n_6) {
   (0) 0.562733 0.428867 0.00839958;
   (1) 0.495032 0.245198 0.25977;
   (2) 0.553543 0.31731 0.129146;
}
probability (n_5 | n_26) {
   (0) 0.404743 0.587247 0.00800997;
   (1) 0.466471 0.177197 0.356332;
}
probability (n_6 | n_15, n_9) {
   (0, 0) 0.307737 0.342721 0.349542;
   (1, 0) 0.331686 0.499272 0.169043;
   (2, 0) 0.516926 0.0109236 0.472151;
   (0, 1) 0.176499 0.706878 0.116623;
   (1, 1) 0.260409 0.490981 0.24861;
   (2, 1) 0.108977 0.342868 0.548155;
   (0, 2) 0.164343 0.468419 0.367238;
   (1, 2) 0.325769 0.226214 0.448017;
   (2, 2) 0.423299 0.373191 0.20351;
}
probability (n_7 | n_29, n_6) {
   (0, 0) 0.507297 0.153848 0.338855;
   (1, 0) 0.178325 0.591567 0.230108;
   (0, 1) 0.0506766 0.595013 0.354311;
   (1, 1) 0.333924 0.337172 0.328903;
   (0, 2) 0.138197 0.78428 0.0775232;
   (1, 2) 0.615935 0.25238 0.131685;
}
probability (n_8 | n_0, n_26) {
   (0, 0) 0.71785 0.28215;
   (1, 0) 0.488723 0.511277;
   (2, 0) 0.676092 0.323908;
   (0, 1) 0.413719 0.586281;
   (1, 1) 0.863724 0.136276;
   (2, 1) 0.179391 0.820609;
}
probability (n_9 | n_18) {
   (0) 0.390639 0.0345229 0.574838;
   (1) 0.139674 0.260226 0.6001;
}
probability (n_10 | n_23) {
   (0) 0.413157 0.291478 0.295365;
   (1) 0.369777 0.313305 0.316918;
}
probability (n_11) {
   default 0.257099 0.742901;
}
probability (n_12 | n_21, n_16, n_11) {
   (0, 0, 0) 0.493188 0.506812;
   (1, 0, 0) 0.168426 0.831574;
   (2, 0, 0) 0.336043 0.663957;
   (0, 1, 0) 0.925368 0.0746318;
   (1, 1, 0) 0.709965 0.290035;
   (2, 1, 0) 0.318074 0.681926;
   (0, 0, 1) 0.96698 0.03302;
   (1, 0, 1) 0.590521 0.409479;
   (2, 0, 1) 0.654594 0.345406;
   (0, 1, 1) 0.597196 0.402804;
   (1, 1, 1) 0.345816 0.654184;
   (2, 1, 1) 0.855859 0.144141;
}
probability (n_13) {
   default 0.341624 0.658376;
}
probability (n_14 | n_22, n_13, n_4) {
   (0, 0, 0) 0.935881 0.0641185;
   (1, 0, 0) 0.574721 0.425279;
   (2, 0, 0) 0.578255 0.421745;
   (0, 1, 0) 0.950649 0.0493511;
   (1, 1, 0) 0.897571 0.102429;
   (2, 1, 0) 0.497497 0.502503;
   (0, 0, 1) 0.186615 0.813385;
   (1, 0, 1) 0.0908245 0.909175;
   (2, 0, 1) 0.686118 0.313882;
   (0, 1, 1) 0.359885 0.640115;
   (1, 1, 1) 0.501955 0.498045;
   (2, 1, 1) 0.6603 0.3397;
   (0, 0, 2) 0.41371 0.58629;
   (1, 0, 2) 0.458371 0.541629;
   (2, 0, 2) 0.404051 0.595949;
   (0, 1, 2) 0.0177494 0.982251;
   (1, 1, 2) 0.680954 0.319046;
   (2, 1, 2) 0.489385 0.510615;
}
probability (n_15 | n_10, n_29) {
   (0, 0) 0.0332531 0.260101 0.706646;
   (1, 0) 0.161114 0.282948 0.555938;
   (2, 0) 0.452779 0.158224 0.388997;
   (0, 1) 0.021127 0.46357 0.515303;
   (1, 1) 0.461709 0.0828211 0.45547;
   (2, 1) 0.48426 0.0116842 0.504056;
}
probability (n_16 | n_20, n_4) {
   (0, 0) 0.738853 0.261147;
   (1, 0) 0.754764 0.245236;
   (2, 0) 0.72315 0.27685;
   (0, 1) 0.548533 0.451467;
   (1, 1) 0.505332 0.494668;
   (2, 1) 0.260812 0.739188;
   (0, 2) 0.69836 0.30164;
   (1, 2) 0.889993 0.110007;
   (2, 2) 0.261337 0.738663;
}
probability (n_17 | n_21) {
   (0) 0.66578 0.33422;
   (1) 0.33248 0.66752;
   (2) 0.266226 0.733774;
}
probability (n_18 | n_11) {
   (0) 0.246505 0.753495;
   (1) 0.0366071 0.963393;
}
probability (n_19 | n_12, n_13) {
   (0, 0) 0.54819 0.103321 0.348489;
   (1, 0) 0.0571965 0.25114 0.691663;
   (0, 1) 0.48249 0.164587 0.352923;
   (1, 1) 0.138296 0.417645 0.444059;
}
probability (n_20 | n_8) {
   (0) 0.750412 0.0164011 0.233187;
   (1) 0.238635 0.124017 0.637348;
}
probability (n_21 | n_4) {
   (0) 0.244036 0.287062 0.468902;
   (1) 0.0423536 0.911214 0.0464325;
   (2) 0.311432 0.0887773 0.59979;
}
probability (n_22 | n_21) {
   (0) 0.44632 0.5462 0.0074805;
   (1) 0.718691 0.20833 0.0729795;
   (2) 0.49664 0.179494 0.323866;
}
probability (n_23) {
   default 0.500536 0.499464;
}
probability (n_24 | n_12) {
   (0) 0.233657 0.374509 0.391834;
   (1) 0.203064 0.383014 0.413922;
}
probability (n_25 | n_15) {
   (0) 0.605871 0.126547 0.267582;
   (1) 0.498612 0.0064556 0.494933;
   (2) 0.0697221 0.516897 0.413381;
}
probability (n_26) {
   default 0.516765 0.483235;
}
probability (n_27 | n_15) {
   (0) 0.733981 0.266019;
   (1) 0.472836 0.527164;
   (2) 0.00682088 0.993179;
}
probability (n_28 | n_26, n_4) {
   (0, 0) 0.287893 0.100068 0.612039;
   (1, 0) 0.0513838 0.522232 0.426385;
   (0, 1) 0.25742 0.396954 0.345626;
   (1, 1) 0.296731 0.544203 0.159066;
   (0, 2) 0.146717 0.422574 0.43071;
   (1, 2) 0.218657 0.58213 0.199214;
}
probability (n_29) {
   default 0.412598 0.587402;
}

