network "unnamedBN" {
// written by aGrUM 0.20.2.9
}

variable n_0 {
   type discrete[2] {0, 1};
}

variable n_1 {
   type discrete[2] {0, 1};
}

variable n_2 {
   type discrete[2] {0, 1};
}

variable n_3 {
   type discrete[2] {0, 1};
}

variable n_4 {
   type discrete[3] {0, 1, 2};
}

variable n_5 {
   type discrete[3] {0, 1, 2};
}

variable n_6 {
   type discrete[3] {0, 1, 2};
}

variable n_7 {
   type discrete[3] {0, 1, 2};
}

variable n_8 {
   type discrete[2] {0, 1};
}

variable n_9 {
   type discrete[3] {0, 1, 2};
}

variable n_10 {
   type discrete[2] {0, 1};
}

variable n_11 {
   type discrete[2] {0, 1};
}

variable n_12 {
   type discrete[2] {0, 1};
}

variable n_13 {
   type discrete[2] {0, 1};
}

variable n_14 {
   type discrete[2] {0, 1};
}

variable n_15 {
   type discrete[3] {0, 1, 2};
}

variable n_16 {
   type discrete[2] {0, 1};
}

variable n_17 {
   type discrete[2] {0, 1};
}

variable n_18 {
   type discrete[2] {0, 1};
}

variable n_19 {
   type discrete[3] {0, 1, 2};
}

variable n_20 {
   type discrete[2] {0, 1};
}

variable n_21 {
   type discrete[2] {0, 1};
}

variable n_22 {
   type discrete[3] {0, 1, 2};
}

variable n_23 {
   type discrete[2] {0, 1};
}

variable n_24 {
   type discrete[2] {0, 1};
}

variable n_25 {
   type discrete[3] {0, 1, 2};
}

variable n_26 {
   type discrete[3] {0, 1, 2};
}

variable n_27 {
   type discrete[2] {0, 1};
}

variable n_28 {
   type discrete[2] {0, 1};
}

variable n_29 {
   type discrete[2] {0, 1};
}

variable n_30 {
   type discrete[2] {0, 1};
}

variable n_31 {
   type discrete[2] {0, 1};
}

variable n_32 {
   type discrete[2] {0, 1};
}

variable n_33 {
   type discrete[2] {0, 1};
}

variable n_34 {
   type discrete[2] {0, 1};
}

variable n_35 {
   type discrete[2] {0, 1};
}

variable n_36 {
   type discrete[3] {0, 1, 2};
}

variable n_37 {
   type discrete[3] {0, 1, 2};
}

variable n_38 {
   type discrete[3] {0, 1, 2};
}

variable n_39 {
   type discrete[2] {0, 1};
}

variable n_40 {
   type discrete[2] {0, 1};
}

variable n_41 {
   type discrete[3] {0, 1, 2};
}

variable n_42 {
   type discrete[2] {0, 1};
}

variable n_43 {
   type discrete[2] {0, 1};
}

variable n_44 {
   type discrete[3] {0, 1, 2};
}

variable n_45 {
   type discrete[2] {0, 1};
}

variable n_46 {
   type discrete[3] {0, 1, 2};
}

variable n_47 {
   type discrete[3] {0, 1, 2};
}

variable n_48 {
   type discrete[2] {0, 1};
}

variable n_49 {
   type discrete[3] {0, 1, 2};
}

variable n_50 {
   type discrete[2] {0, 1};
}

variable n_51 {
   type discrete[2] {0, 1};
}

variable n_52 {
   type discrete[3] {0, 1, 2};
}

variable n_53 {
   type discrete[2] {0, 1};
}

variable n_54 {
   type discrete[2] {0, 1};
}

variable n_55 {
   type discrete[3] {0, 1, 2};
}

variable n_56 {
   type discrete[3] {0, 1, 2};
}

variable n_57 {
   type discrete[3] {0, 1, 2};
}

variable n_58 {
   type discrete[3] {0, 1, 2};
}

variable n_59 {
   type discrete[3] {0, 1, 2};
}

variable n_60 {
   type discrete[3] {0, 1, 2};
}

variable n_61 {
   type discrete[3] {0, 1, 2};
}

variable n_62 {
   type discrete[3] {0, 1, 2};
}

variable n_63 {
   type discrete[3] {0, 1, 2};
}

variable n_64 {
   type discrete[3] {0, 1, 2};
}

variable n_65 {
   type discrete[3] {0, 1, 2};
}

variable n_66 {
   type discrete[2] {0, 1};
}

variable n_67 {
   type discrete[2] {0, 1};
}

variable n_68 {
   type discrete[2] {0, 1};
}

variable n_69 {
   type discrete[2] {0, 1};
}

probability (n_0) {
   default 0.0080096 0.99199;
}
probability (n_1 | n_0, n_57) {
   (0, 0) 0.751162 0.248838;
   (1, 0) 0.411054 0.588946;
   (0, 1) 0.717646 0.282354;
   (1, 1) 0.244096 0.755904;
   (0, 2) 0.480379 0.519621;
   (1, 2) 0.093972 0.906028;
}
probability (n_2 | n_1) {
   (0) 0.52154 0.47846;
   (1) 0.0359651 0.964035;
}
probability (n_3 | n_2) {
   (0) 0.704342 0.295658;
   (1) 0.241861 0.758139;
}
probability (n_4 | n_3) {
   (0) 0.371786 0.48108 0.147134;
   (1) 0.413279 0.189522 0.397199;
}
probability (n_5 | n_1, n_48, n_7) {
   (0, 0, 0) 0.180551 0.453621 0.365827;
   (1, 0, 0) 0.302139 0.26662 0.431241;
   (0, 1, 0) 0.303656 0.476483 0.219861;
   (1, 1, 0) 0.336157 0.209844 0.453999;
   (0, 0, 1) 0.270074 0.61952 0.110406;
   (1, 0, 1) 0.36476 0.580882 0.0543584;
   (0, 1, 1) 0.267735 0.693794 0.0384715;
   (1, 1, 1) 0.459049 0.463556 0.0773947;
   (0, 0, 2) 0.311585 0.596197 0.0922175;
   (1, 0, 2) 0.377656 0.51176 0.110584;
   (0, 1, 2) 0.717364 0.21613 0.0665052;
   (1, 1, 2) 0.356133 0.391856 0.252011;
}
probability (n_6 | n_5, n_27) {
   (0, 0) 0.0918152 0.349929 0.558256;
   (1, 0) 0.261279 0.385061 0.353661;
   (2, 0) 0.31199 0.088937 0.599073;
   (0, 1) 0.391259 0.543503 0.0652387;
   (1, 1) 0.21232 0.391235 0.396445;
   (2, 1) 0.232013 0.378848 0.389139;
}
probability (n_7) {
   default 0.525674 0.078831 0.395495;
}
probability (n_8 | n_11) {
   (0) 0.485682 0.514318;
   (1) 0.280961 0.719039;
}
probability (n_9 | n_6, n_10) {
   (0, 0) 0.272186 0.277601 0.450213;
   (1, 0) 0.200696 0.291244 0.50806;
   (2, 0) 0.150036 0.318549 0.531415;
   (0, 1) 0.53779 0.142789 0.319421;
   (1, 1) 0.461867 0.124682 0.413451;
   (2, 1) 0.141256 0.385097 0.473647;
}
probability (n_10 | n_68) {
   (0) 0.592928 0.407072;
   (1) 0.862355 0.137645;
}
probability (n_11 | n_54, n_41) {
   (0, 0) 0.317681 0.682319;
   (1, 0) 0.730071 0.269929;
   (0, 1) 0.662316 0.337684;
   (1, 1) 0.0837424 0.916258;
   (0, 2) 0.347073 0.652927;
   (1, 2) 0.714542 0.285458;
}
probability (n_12 | n_8) {
   (0) 0.432915 0.567085;
   (1) 0.41554 0.58446;
}
probability (n_13 | n_0) {
   (0) 0.50679 0.49321;
   (1) 0.521017 0.478983;
}
probability (n_14 | n_13, n_16) {
   (0, 0) 0.582638 0.417362;
   (1, 0) 0.563349 0.436651;
   (0, 1) 0.593383 0.406617;
   (1, 1) 0.513031 0.486969;
}
probability (n_15 | n_14) {
   (0) 0.061794 0.221853 0.716353;
   (1) 0.199021 0.497885 0.303093;
}
probability (n_16) {
   default 0.56068 0.43932;
}
probability (n_17) {
   default 0.602663 0.397337;
}
probability (n_18 | n_13) {
   (0) 0.867286 0.132714;
   (1) 0.252694 0.747306;
}
probability (n_19 | n_13, n_20) {
   (0, 0) 0.247621 0.545907 0.206472;
   (1, 0) 0.050625 0.496214 0.453161;
   (0, 1) 0.35605 0.366446 0.277503;
   (1, 1) 0.465757 0.17835 0.355892;
}
probability (n_20) {
   default 0.755642 0.244358;
}
probability (n_21 | n_20, n_44) {
   (0, 0) 0.58791 0.41209;
   (1, 0) 0.372099 0.627901;
   (0, 1) 0.807872 0.192128;
   (1, 1) 0.29869 0.70131;
   (0, 2) 0.453729 0.546271;
   (1, 2) 0.719505 0.280495;
}
probability (n_22 | n_21) {
   (0) 0.174753 0.370764 0.454483;
   (1) 0.154175 0.383218 0.462606;
}
probability (n_23 | n_22) {
   (0) 0.120015 0.879985;
   (1) 0.468894 0.531106;
   (2) 0.663862 0.336138;
}
probability (n_24) {
   default 0.77678 0.22322;
}
probability (n_25 | n_26, n_43, n_32) {
   (0, 0, 0) 0.409541 0.355874 0.234585;
   (1, 0, 0) 0.450145 0.375661 0.174194;
   (2, 0, 0) 0.471718 0.249558 0.278724;
   (0, 1, 0) 0.218272 0.394478 0.38725;
   (1, 1, 0) 0.37757 0.591111 0.0313186;
   (2, 1, 0) 0.452245 0.303409 0.244347;
   (0, 0, 1) 0.384283 0.355968 0.259748;
   (1, 0, 1) 0.242541 0.306669 0.450791;
   (2, 0, 1) 0.259591 0.23485 0.505559;
   (0, 1, 1) 0.0462299 0.858342 0.095428;
   (1, 1, 1) 0.140311 0.299562 0.560127;
   (2, 1, 1) 0.519443 0.153531 0.327026;
}
probability (n_26 | n_27) {
   (0) 0.434057 0.281002 0.284941;
   (1) 0.159641 0.827785 0.0125741;
}
probability (n_27) {
   default 0.569278 0.430722;
}
probability (n_28 | n_26) {
   (0) 0.610493 0.389507;
   (1) 0.794079 0.205921;
   (2) 0.636445 0.363555;
}
probability (n_29 | n_25) {
   (0) 0.758017 0.241983;
   (1) 0.773411 0.226589;
   (2) 0.925562 0.0744384;
}
probability (n_30 | n_25, n_13) {
   (0, 0) 0.540529 0.459471;
   (1, 0) 0.442593 0.557407;
   (2, 0) 0.632978 0.367022;
   (0, 1) 0.713512 0.286488;
   (1, 1) 0.562039 0.437961;
   (2, 1) 0.422549 0.577451;
}
probability (n_31 | n_25) {
   (0) 0.602014 0.397986;
   (1) 0.901475 0.0985245;
   (2) 0.276852 0.723148;
}
probability (n_32 | n_24, n_33) {
   (0, 0) 0.766401 0.233599;
   (1, 0) 0.301154 0.698846;
   (0, 1) 0.278949 0.721051;
   (1, 1) 0.800742 0.199258;
}
probability (n_33) {
   default 0.273971 0.726029;
}
probability (n_34) {
   default 0.868649 0.131351;
}
probability (n_35 | n_53, n_43, n_34) {
   (0, 0, 0) 0.408085 0.591915;
   (1, 0, 0) 0.396252 0.603748;
   (0, 1, 0) 0.0424218 0.957578;
   (1, 1, 0) 0.0270971 0.972903;
   (0, 0, 1) 0.16209 0.83791;
   (1, 0, 1) 0.246702 0.753298;
   (0, 1, 1) 0.569885 0.430115;
   (1, 1, 1) 0.586502 0.413498;
}
probability (n_36 | n_35, n_69) {
   (0, 0) 0.647379 0.154488 0.198133;
   (1, 0) 0.208889 0.383798 0.407313;
   (0, 1) 0.338011 0.468529 0.193459;
   (1, 1) 0.166714 0.533183 0.300103;
}
probability (n_37 | n_33) {
   (0) 0.493899 0.176668 0.329433;
   (1) 0.650489 0.296708 0.0528028;
}
probability (n_38 | n_39) {
   (0) 0.430031 0.555877 0.0140921;
   (1) 0.176341 0.673097 0.150562;
}
probability (n_39) {
   default 0.656464 0.343536;
}
probability (n_40 | n_39, n_37) {
   (0, 0) 0.533351 0.466649;
   (1, 0) 0.399556 0.600444;
   (0, 1) 0.677477 0.322523;
   (1, 1) 0.0666331 0.933367;
   (0, 2) 0.528527 0.471473;
   (1, 2) 0.0298317 0.970168;
}
probability (n_41) {
   default 0.0858187 0.585433 0.328748;
}
probability (n_42 | n_39) {
   (0) 0.534605 0.465395;
   (1) 0.0367736 0.963226;
}
probability (n_43) {
   default 0.431368 0.568632;
}
probability (n_44 | n_45, n_26) {
   (0, 0) 0.288122 0.264637 0.447241;
   (1, 0) 0.348093 0.20432 0.447587;
   (0, 1) 0.459924 0.539709 0.000367115;
   (1, 1) 0.292081 0.276266 0.431652;
   (0, 2) 0.172355 0.469582 0.358064;
   (1, 2) 0.443153 0.535817 0.02103;
}
probability (n_45) {
   default 0.488367 0.511633;
}
probability (n_46 | n_44, n_41) {
   (0, 0) 0.0283776 0.429503 0.54212;
   (1, 0) 0.174466 0.429585 0.395949;
   (2, 0) 0.147354 0.828289 0.024357;
   (0, 1) 0.388017 0.267772 0.344211;
   (1, 1) 0.842816 0.0240679 0.133116;
   (2, 1) 0.168944 0.486946 0.34411;
   (0, 2) 0.447476 0.452136 0.100388;
   (1, 2) 0.281652 0.483219 0.23513;
   (2, 2) 0.512722 0.0366721 0.450606;
}
probability (n_47) {
   default 0.343255 0.082823 0.573922;
}
probability (n_48 | n_47) {
   (0) 0.574985 0.425015;
   (1) 0.82023 0.17977;
   (2) 0.788472 0.211528;
}
probability (n_49 | n_48) {
   (0) 0.569824 0.422097 0.00807936;
   (1) 0.629505 0.109442 0.261054;
}
probability (n_50 | n_51) {
   (0) 0.838179 0.161821;
   (1) 0.446045 0.553955;
}
probability (n_51 | n_52, n_60) {
   (0, 0) 0.557653 0.442347;
   (1, 0) 0.318759 0.681241;
   (2, 0) 0.388657 0.611343;
   (0, 1) 0.428433 0.571567;
   (1, 1) 0.549996 0.450004;
   (2, 1) 0.0211114 0.978889;
   (0, 2) 0.909365 0.0906348;
   (1, 2) 0.936383 0.0636173;
   (2, 2) 0.461747 0.538253;
}
probability (n_52) {
   default 0.102834 0.580373 0.316793;
}
probability (n_53) {
   default 0.74603 0.25397;
}
probability (n_54) {
   default 0.310145 0.689855;
}
probability (n_55 | n_54) {
   (0) 0.333299 0.517715 0.148986;
   (1) 0.391849 0.109243 0.498908;
}
probability (n_56 | n_53) {
   (0) 0.419525 0.204798 0.375677;
   (1) 0.206914 0.629527 0.163559;
}
probability (n_57 | n_35, n_58) {
   (0, 0) 0.385432 0.256087 0.358481;
   (1, 0) 0.346515 0.437726 0.215758;
   (0, 1) 0.27802 0.505913 0.216067;
   (1, 1) 0.236599 0.477815 0.285587;
   (0, 2) 0.271861 0.292576 0.435563;
   (1, 2) 0.305765 0.517061 0.177174;
}
probability (n_58) {
   default 0.448134 0.459315 0.0925509;
}
probability (n_59 | n_17) {
   (0) 0.719149 0.0131553 0.267696;
   (1) 0.183477 0.468807 0.347716;
}
probability (n_60 | n_59) {
   (0) 0.280021 0.225319 0.49466;
   (1) 0.260735 0.0689352 0.67033;
   (2) 0.171407 0.40655 0.422042;
}
probability (n_61) {
   default 0.296572 0.52409 0.179338;
}
probability (n_62 | n_61, n_0) {
   (0, 0) 0.543628 0.28534 0.171032;
   (1, 0) 0.31104 0.0304156 0.658544;
   (2, 0) 0.197619 0.331751 0.47063;
   (0, 1) 0.645494 0.0531409 0.301365;
   (1, 1) 0.426838 0.390529 0.182634;
   (2, 1) 0.0835851 0.223497 0.692918;
}
probability (n_63 | n_0, n_54, n_39) {
   (0, 0, 0) 0.491926 0.203031 0.305043;
   (1, 0, 0) 0.0842636 0.505748 0.409989;
   (0, 1, 0) 0.0901054 0.777692 0.132203;
   (1, 1, 0) 0.525098 0.363975 0.110926;
   (0, 0, 1) 0.0680343 0.355323 0.576643;
   (1, 0, 1) 0.191806 0.445922 0.362272;
   (0, 1, 1) 0.364936 0.246394 0.38867;
   (1, 1, 1) 0.0907488 0.662091 0.24716;
}
probability (n_64 | n_63, n_65) {
   (0, 0) 0.389405 0.572544 0.0380505;
   (1, 0) 0.486805 0.428276 0.084919;
   (2, 0) 0.0728367 0.455542 0.471621;
   (0, 1) 0.438312 0.450607 0.11108;
   (1, 1) 0.107611 0.796499 0.09589;
   (2, 1) 0.204194 0.3147 0.481106;
   (0, 2) 0.22149 0.250042 0.528468;
   (1, 2) 0.00883421 0.506803 0.484363;
   (2, 2) 0.404008 0.0301529 0.565839;
}
probability (n_65) {
   default 0.491048 0.0886368 0.420315;
}
probability (n_66 | n_0) {
   (0) 0.2937 0.7063;
   (1) 0.601583 0.398417;
}
probability (n_67 | n_66, n_11) {
   (0, 0) 0.742437 0.257563;
   (1, 0) 0.485237 0.514763;
   (0, 1) 0.391202 0.608798;
   (1, 1) 0.904545 0.0954548;
}
probability (n_68 | n_66, n_69) {
   (0, 0) 0.104896 0.895104;
   (1, 0) 0.896509 0.103491;
   (0, 1) 0.700303 0.299697;
   (1, 1) 0.480718 0.519282;
}
probability (n_69 | n_50) {
   (0) 0.483203 0.516797;
   (1) 0.652608 0.347392;
}

